digraph Tree {
node [shape=box] ;
0 [label="X[6] <= 0.181\nentropy = 1.584\nsamples = 3341\nvalue = [1048, 1160, 1133]"] ;
1 [label="X[9] <= 0.5\nentropy = 1.136\nsamples = 1266\nvalue = [243, 124, 899]"] ;
0 -> 1 [labeldistance=2.5, labelangle=45, headlabel="True"] ;
2 [label="X[5] <= 0.029\nentropy = 1.498\nsamples = 458\nvalue = [157, 87, 214]"] ;
1 -> 2 ;
3 [label="entropy = 0.0\nsamples = 33\nvalue = [0, 0, 33]"] ;
2 -> 3 ;
4 [label="X[4] <= 0.24\nentropy = 1.524\nsamples = 425\nvalue = [157, 87, 181]"] ;
2 -> 4 ;
5 [label="X[3] <= 0.492\nentropy = 1.552\nsamples = 304\nvalue = [120, 72, 112]"] ;
4 -> 5 ;
6 [label="X[1] <= 0.278\nentropy = 1.511\nsamples = 252\nvalue = [98, 48, 106]"] ;
5 -> 6 ;
7 [label="X[3] <= 0.215\nentropy = 1.302\nsamples = 56\nvalue = [19, 5, 32]"] ;
6 -> 7 ;
8 [label="X[4] <= 0.066\nentropy = 1.397\nsamples = 44\nvalue = [19, 5, 20]"] ;
7 -> 8 ;
9 [label="X[3] <= 0.171\nentropy = 1.58\nsamples = 17\nvalue = [6, 5, 6]"] ;
8 -> 9 ;
10 [label="X[4] <= 0.049\nentropy = 1.46\nsamples = 13\nvalue = [5, 2, 6]"] ;
9 -> 10 ;
11 [label="X[5] <= 0.033\nentropy = 0.811\nsamples = 4\nvalue = [3, 1, 0]"] ;
10 -> 11 ;
12 [label="entropy = 0.0\nsamples = 1\nvalue = [0, 1, 0]"] ;
11 -> 12 ;
13 [label="entropy = 0.0\nsamples = 3\nvalue = [3, 0, 0]"] ;
11 -> 13 ;
14 [label="X[0] <= 0.332\nentropy = 1.224\nsamples = 9\nvalue = [2, 1, 6]"] ;
10 -> 14 ;
15 [label="X[1] <= 0.242\nentropy = 0.65\nsamples = 6\nvalue = [0, 1, 5]"] ;
14 -> 15 ;
16 [label="entropy = 0.0\nsamples = 4\nvalue = [0, 0, 4]"] ;
15 -> 16 ;
17 [label="X[6] <= 0.048\nentropy = 1.0\nsamples = 2\nvalue = [0, 1, 1]"] ;
15 -> 17 ;
18 [label="entropy = 0.0\nsamples = 1\nvalue = [0, 0, 1]"] ;
17 -> 18 ;
19 [label="entropy = 0.0\nsamples = 1\nvalue = [0, 1, 0]"] ;
17 -> 19 ;
20 [label="X[0] <= 0.35\nentropy = 0.918\nsamples = 3\nvalue = [2, 0, 1]"] ;
14 -> 20 ;
21 [label="entropy = 0.0\nsamples = 2\nvalue = [2, 0, 0]"] ;
20 -> 21 ;
22 [label="entropy = 0.0\nsamples = 1\nvalue = [0, 0, 1]"] ;
20 -> 22 ;
23 [label="X[5] <= 0.046\nentropy = 0.811\nsamples = 4\nvalue = [1, 3, 0]"] ;
9 -> 23 ;
24 [label="entropy = 0.0\nsamples = 3\nvalue = [0, 3, 0]"] ;
23 -> 24 ;
25 [label="entropy = 0.0\nsamples = 1\nvalue = [1, 0, 0]"] ;
23 -> 25 ;
26 [label="X[6] <= 0.057\nentropy = 0.999\nsamples = 27\nvalue = [13, 0, 14]"] ;
8 -> 26 ;
27 [label="entropy = 0.0\nsamples = 8\nvalue = [0, 0, 8]"] ;
26 -> 27 ;
28 [label="X[0] <= 0.352\nentropy = 0.9\nsamples = 19\nvalue = [13, 0, 6]"] ;
26 -> 28 ;
29 [label="X[0] <= 0.338\nentropy = 0.787\nsamples = 17\nvalue = [13, 0, 4]"] ;
28 -> 29 ;
30 [label="X[3] <= 0.194\nentropy = 0.971\nsamples = 5\nvalue = [2, 0, 3]"] ;
29 -> 30 ;
31 [label="entropy = 0.0\nsamples = 3\nvalue = [0, 0, 3]"] ;
30 -> 31 ;
32 [label="entropy = 0.0\nsamples = 2\nvalue = [2, 0, 0]"] ;
30 -> 32 ;
33 [label="X[6] <= 0.077\nentropy = 0.414\nsamples = 12\nvalue = [11, 0, 1]"] ;
29 -> 33 ;
34 [label="entropy = 0.0\nsamples = 11\nvalue = [11, 0, 0]"] ;
33 -> 34 ;
35 [label="entropy = 0.0\nsamples = 1\nvalue = [0, 0, 1]"] ;
33 -> 35 ;
36 [label="entropy = 0.0\nsamples = 2\nvalue = [0, 0, 2]"] ;
28 -> 36 ;
37 [label="entropy = 0.0\nsamples = 12\nvalue = [0, 0, 12]"] ;
7 -> 37 ;
38 [label="X[4] <= 0.194\nentropy = 1.539\nsamples = 196\nvalue = [79, 43, 74]"] ;
6 -> 38 ;
39 [label="X[3] <= 0.483\nentropy = 1.559\nsamples = 157\nvalue = [64, 40, 53]"] ;
38 -> 39 ;
40 [label="X[3] <= 0.243\nentropy = 1.55\nsamples = 154\nvalue = [64, 37, 53]"] ;
39 -> 40 ;
41 [label="X[4] <= 0.087\nentropy = 0.881\nsamples = 10\nvalue = [7, 0, 3]"] ;
40 -> 41 ;
42 [label="X[2] <= 0.102\nentropy = 1.0\nsamples = 6\nvalue = [3, 0, 3]"] ;
41 -> 42 ;
43 [label="X[1] <= 0.282\nentropy = 0.811\nsamples = 4\nvalue = [3, 0, 1]"] ;
42 -> 43 ;
44 [label="entropy = 0.0\nsamples = 1\nvalue = [0, 0, 1]"] ;
43 -> 44 ;
45 [label="entropy = 0.0\nsamples = 3\nvalue = [3, 0, 0]"] ;
43 -> 45 ;
46 [label="entropy = 0.0\nsamples = 2\nvalue = [0, 0, 2]"] ;
42 -> 46 ;
47 [label="entropy = 0.0\nsamples = 4\nvalue = [4, 0, 0]"] ;
41 -> 47 ;
48 [label="X[4] <= 0.108\nentropy = 1.563\nsamples = 144\nvalue = [57, 37, 50]"] ;
40 -> 48 ;
49 [label="X[4] <= 0.098\nentropy = 1.4\nsamples = 15\nvalue = [5, 8, 2]"] ;
48 -> 49 ;
50 [label="X[5] <= 0.056\nentropy = 1.299\nsamples = 8\nvalue = [5, 2, 1]"] ;
49 -> 50 ;
51 [label="X[5] <= 0.049\nentropy = 1.0\nsamples = 2\nvalue = [0, 1, 1]"] ;
50 -> 51 ;
52 [label="entropy = 0.0\nsamples = 1\nvalue = [0, 0, 1]"] ;
51 -> 52 ;
53 [label="entropy = 0.0\nsamples = 1\nvalue = [0, 1, 0]"] ;
51 -> 53 ;
54 [label="X[1] <= 0.282\nentropy = 0.65\nsamples = 6\nvalue = [5, 1, 0]"] ;
50 -> 54 ;
55 [label="entropy = 0.0\nsamples = 1\nvalue = [0, 1, 0]"] ;
54 -> 55 ;
56 [label="entropy = 0.0\nsamples = 5\nvalue = [5, 0, 0]"] ;
54 -> 56 ;
57 [label="X[0] <= 0.373\nentropy = 0.592\nsamples = 7\nvalue = [0, 6, 1]"] ;
49 -> 57 ;
58 [label="entropy = 0.0\nsamples = 1\nvalue = [0, 0, 1]"] ;
57 -> 58 ;
59 [label="entropy = 0.0\nsamples = 6\nvalue = [0, 6, 0]"] ;
57 -> 59 ;
60 [label="X[6] <= 0.098\nentropy = 1.543\nsamples = 129\nvalue = [52, 29, 48]"] ;
48 -> 60 ;
61 [label="X[6] <= 0.078\nentropy = 1.207\nsamples = 24\nvalue = [12, 1, 11]"] ;
60 -> 61 ;
62 [label="X[1] <= 0.287\nentropy = 0.918\nsamples = 3\nvalue = [2, 1, 0]"] ;
61 -> 62 ;
63 [label="entropy = 0.0\nsamples = 1\nvalue = [0, 1, 0]"] ;
62 -> 63 ;
64 [label="entropy = 0.0\nsamples = 2\nvalue = [2, 0, 0]"] ;
62 -> 64 ;
65 [label="X[1] <= 0.31\nentropy = 0.998\nsamples = 21\nvalue = [10, 0, 11]"] ;
61 -> 65 ;
66 [label="X[5] <= 0.054\nentropy = 0.964\nsamples = 18\nvalue = [7, 0, 11]"] ;
65 -> 66 ;
67 [label="entropy = 0.0\nsamples = 3\nvalue = [0, 0, 3]"] ;
66 -> 67 ;
68 [label="X[2] <= 0.088\nentropy = 0.997\nsamples = 15\nvalue = [7, 0, 8]"] ;
66 -> 68 ;
69 [label="entropy = 0.0\nsamples = 2\nvalue = [0, 0, 2]"] ;
68 -> 69 ;
70 [label="X[1] <= 0.292\nentropy = 0.996\nsamples = 13\nvalue = [7, 0, 6]"] ;
68 -> 70 ;
71 [label="X[2] <= 0.122\nentropy = 0.722\nsamples = 5\nvalue = [4, 0, 1]"] ;
70 -> 71 ;
72 [label="entropy = 0.0\nsamples = 4\nvalue = [4, 0, 0]"] ;
71 -> 72 ;
73 [label="entropy = 0.0\nsamples = 1\nvalue = [0, 0, 1]"] ;
71 -> 73 ;
74 [label="X[4] <= 0.143\nentropy = 0.954\nsamples = 8\nvalue = [3, 0, 5]"] ;
70 -> 74 ;
75 [label="entropy = 0.0\nsamples = 4\nvalue = [0, 0, 4]"] ;
74 -> 75 ;
76 [label="X[1] <= 0.303\nentropy = 0.811\nsamples = 4\nvalue = [3, 0, 1]"] ;
74 -> 76 ;
77 [label="X[5] <= 0.072\nentropy = 1.0\nsamples = 2\nvalue = [1, 0, 1]"] ;
76 -> 77 ;
78 [label="entropy = 0.0\nsamples = 1\nvalue = [0, 0, 1]"] ;
77 -> 78 ;
79 [label="entropy = 0.0\nsamples = 1\nvalue = [1, 0, 0]"] ;
77 -> 79 ;
80 [label="entropy = 0.0\nsamples = 2\nvalue = [2, 0, 0]"] ;
76 -> 80 ;
81 [label="entropy = 0.0\nsamples = 3\nvalue = [3, 0, 0]"] ;
65 -> 81 ;
82 [label="X[4] <= 0.121\nentropy = 1.569\nsamples = 105\nvalue = [40, 28, 37]"] ;
60 -> 82 ;
83 [label="X[3] <= 0.35\nentropy = 0.65\nsamples = 6\nvalue = [5, 1, 0]"] ;
82 -> 83 ;
84 [label="entropy = 0.0\nsamples = 5\nvalue = [5, 0, 0]"] ;
83 -> 84 ;
85 [label="entropy = 0.0\nsamples = 1\nvalue = [0, 1, 0]"] ;
83 -> 85 ;
86 [label="X[3] <= 0.344\nentropy = 1.572\nsamples = 99\nvalue = [35, 27, 37]"] ;
82 -> 86 ;
87 [label="X[0] <= 0.39\nentropy = 0.971\nsamples = 10\nvalue = [0, 4, 6]"] ;
86 -> 87 ;
88 [label="entropy = 0.0\nsamples = 3\nvalue = [0, 0, 3]"] ;
87 -> 88 ;
89 [label="X[2] <= 0.102\nentropy = 0.985\nsamples = 7\nvalue = [0, 4, 3]"] ;
87 -> 89 ;
90 [label="X[4] <= 0.133\nentropy = 0.971\nsamples = 5\nvalue = [0, 2, 3]"] ;
89 -> 90 ;
91 [label="X[1] <= 0.315\nentropy = 0.918\nsamples = 3\nvalue = [0, 2, 1]"] ;
90 -> 91 ;
92 [label="entropy = 0.0\nsamples = 1\nvalue = [0, 0, 1]"] ;
91 -> 92 ;
93 [label="entropy = 0.0\nsamples = 2\nvalue = [0, 2, 0]"] ;
91 -> 93 ;
94 [label="entropy = 0.0\nsamples = 2\nvalue = [0, 0, 2]"] ;
90 -> 94 ;
95 [label="entropy = 0.0\nsamples = 2\nvalue = [0, 2, 0]"] ;
89 -> 95 ;
96 [label="X[3] <= 0.388\nentropy = 1.564\nsamples = 89\nvalue = [35, 23, 31]"] ;
86 -> 96 ;
97 [label="X[4] <= 0.17\nentropy = 1.545\nsamples = 27\nvalue = [8, 12, 7]"] ;
96 -> 97 ;
98 [label="X[3] <= 0.371\nentropy = 1.423\nsamples = 22\nvalue = [8, 11, 3]"] ;
97 -> 98 ;
99 [label="X[2] <= 0.107\nentropy = 1.309\nsamples = 11\nvalue = [7, 2, 2]"] ;
98 -> 99 ;
100 [label="entropy = 0.0\nsamples = 4\nvalue = [4, 0, 0]"] ;
99 -> 100 ;
101 [label="X[3] <= 0.356\nentropy = 1.557\nsamples = 7\nvalue = [3, 2, 2]"] ;
99 -> 101 ;
102 [label="X[5] <= 0.087\nentropy = 0.811\nsamples = 4\nvalue = [3, 0, 1]"] ;
101 -> 102 ;
103 [label="entropy = 0.0\nsamples = 3\nvalue = [3, 0, 0]"] ;
102 -> 103 ;
104 [label="entropy = 0.0\nsamples = 1\nvalue = [0, 0, 1]"] ;
102 -> 104 ;
105 [label="X[5] <= 0.071\nentropy = 0.918\nsamples = 3\nvalue = [0, 2, 1]"] ;
101 -> 105 ;
106 [label="entropy = 0.0\nsamples = 1\nvalue = [0, 0, 1]"] ;
105 -> 106 ;
107 [label="entropy = 0.0\nsamples = 2\nvalue = [0, 2, 0]"] ;
105 -> 107 ;
108 [label="X[4] <= 0.168\nentropy = 0.866\nsamples = 11\nvalue = [1, 9, 1]"] ;
98 -> 108 ;
109 [label="X[6] <= 0.109\nentropy = 0.469\nsamples = 10\nvalue = [0, 9, 1]"] ;
108 -> 109 ;
110 [label="X[6] <= 0.104\nentropy = 1.0\nsamples = 2\nvalue = [0, 1, 1]"] ;
109 -> 110 ;
111 [label="entropy = 0.0\nsamples = 1\nvalue = [0, 1, 0]"] ;
110 -> 111 ;
112 [label="entropy = 0.0\nsamples = 1\nvalue = [0, 0, 1]"] ;
110 -> 112 ;
113 [label="entropy = 0.0\nsamples = 8\nvalue = [0, 8, 0]"] ;
109 -> 113 ;
114 [label="entropy = 0.0\nsamples = 1\nvalue = [1, 0, 0]"] ;
108 -> 114 ;
115 [label="X[4] <= 0.173\nentropy = 0.722\nsamples = 5\nvalue = [0, 1, 4]"] ;
97 -> 115 ;
116 [label="entropy = 0.0\nsamples = 4\nvalue = [0, 0, 4]"] ;
115 -> 116 ;
117 [label="entropy = 0.0\nsamples = 1\nvalue = [0, 1, 0]"] ;
115 -> 117 ;
118 [label="X[3] <= 0.427\nentropy = 1.495\nsamples = 62\nvalue = [27, 11, 24]"] ;
96 -> 118 ;
119 [label="X[1] <= 0.347\nentropy = 0.99\nsamples = 25\nvalue = [14, 0, 11]"] ;
118 -> 119 ;
120 [label="X[1] <= 0.322\nentropy = 0.954\nsamples = 16\nvalue = [6, 0, 10]"] ;
119 -> 120 ;
121 [label="entropy = 0.0\nsamples = 2\nvalue = [2, 0, 0]"] ;
120 -> 121 ;
122 [label="X[7] <= 0.5\nentropy = 0.863\nsamples = 14\nvalue = [4, 0, 10]"] ;
120 -> 122 ;
123 [label="entropy = 0.0\nsamples = 5\nvalue = [0, 0, 5]"] ;
122 -> 123 ;
124 [label="X[3] <= 0.41\nentropy = 0.991\nsamples = 9\nvalue = [4, 0, 5]"] ;
122 -> 124 ;
125 [label="X[2] <= 0.113\nentropy = 0.918\nsamples = 6\nvalue = [4, 0, 2]"] ;
124 -> 125 ;
126 [label="entropy = 0.0\nsamples = 3\nvalue = [3, 0, 0]"] ;
125 -> 126 ;
127 [label="X[2] <= 0.117\nentropy = 0.918\nsamples = 3\nvalue = [1, 0, 2]"] ;
125 -> 127 ;
128 [label="entropy = 0.0\nsamples = 2\nvalue = [0, 0, 2]"] ;
127 -> 128 ;
129 [label="entropy = 0.0\nsamples = 1\nvalue = [1, 0, 0]"] ;
127 -> 129 ;
130 [label="entropy = 0.0\nsamples = 3\nvalue = [0, 0, 3]"] ;
124 -> 130 ;
131 [label="X[1] <= 0.37\nentropy = 0.503\nsamples = 9\nvalue = [8, 0, 1]"] ;
119 -> 131 ;
132 [label="entropy = 0.0\nsamples = 8\nvalue = [8, 0, 0]"] ;
131 -> 132 ;
133 [label="entropy = 0.0\nsamples = 1\nvalue = [0, 0, 1]"] ;
131 -> 133 ;
134 [label="X[3] <= 0.446\nentropy = 1.581\nsamples = 37\nvalue = [13, 11, 13]"] ;
118 -> 134 ;
135 [label="X[4] <= 0.172\nentropy = 1.198\nsamples = 14\nvalue = [1, 4, 9]"] ;
134 -> 135 ;
136 [label="X[4] <= 0.152\nentropy = 1.379\nsamples = 7\nvalue = [1, 4, 2]"] ;
135 -> 136 ;
137 [label="entropy = 0.0\nsamples = 1\nvalue = [1, 0, 0]"] ;
136 -> 137 ;
138 [label="X[3] <= 0.439\nentropy = 0.918\nsamples = 6\nvalue = [0, 4, 2]"] ;
136 -> 138 ;
139 [label="entropy = 0.0\nsamples = 3\nvalue = [0, 3, 0]"] ;
138 -> 139 ;
140 [label="X[0] <= 0.45\nentropy = 0.918\nsamples = 3\nvalue = [0, 1, 2]"] ;
138 -> 140 ;
141 [label="X[1] <= 0.33\nentropy = 1.0\nsamples = 2\nvalue = [0, 1, 1]"] ;
140 -> 141 ;
142 [label="entropy = 0.0\nsamples = 1\nvalue = [0, 0, 1]"] ;
141 -> 142 ;
143 [label="entropy = 0.0\nsamples = 1\nvalue = [0, 1, 0]"] ;
141 -> 143 ;
144 [label="entropy = 0.0\nsamples = 1\nvalue = [0, 0, 1]"] ;
140 -> 144 ;
145 [label="entropy = 0.0\nsamples = 7\nvalue = [0, 0, 7]"] ;
135 -> 145 ;
146 [label="X[3] <= 0.459\nentropy = 1.451\nsamples = 23\nvalue = [12, 7, 4]"] ;
134 -> 146 ;
147 [label="X[3] <= 0.456\nentropy = 1.0\nsamples = 12\nvalue = [6, 6, 0]"] ;
146 -> 147 ;
148 [label="X[5] <= 0.102\nentropy = 0.918\nsamples = 9\nvalue = [6, 3, 0]"] ;
147 -> 148 ;
149 [label="X[3] <= 0.448\nentropy = 0.811\nsamples = 4\nvalue = [1, 3, 0]"] ;
148 -> 149 ;
150 [label="entropy = 0.0\nsamples = 1\nvalue = [1, 0, 0]"] ;
149 -> 150 ;
151 [label="entropy = 0.0\nsamples = 3\nvalue = [0, 3, 0]"] ;
149 -> 151 ;
152 [label="entropy = 0.0\nsamples = 5\nvalue = [5, 0, 0]"] ;
148 -> 152 ;
153 [label="entropy = 0.0\nsamples = 3\nvalue = [0, 3, 0]"] ;
147 -> 153 ;
154 [label="X[4] <= 0.179\nentropy = 1.322\nsamples = 11\nvalue = [6, 1, 4]"] ;
146 -> 154 ;
155 [label="entropy = 0.0\nsamples = 3\nvalue = [0, 0, 3]"] ;
154 -> 155 ;
156 [label="X[5] <= 0.1\nentropy = 1.061\nsamples = 8\nvalue = [6, 1, 1]"] ;
154 -> 156 ;
157 [label="X[3] <= 0.476\nentropy = 1.0\nsamples = 2\nvalue = [0, 1, 1]"] ;
156 -> 157 ;
158 [label="entropy = 0.0\nsamples = 1\nvalue = [0, 1, 0]"] ;
157 -> 158 ;
159 [label="entropy = 0.0\nsamples = 1\nvalue = [0, 0, 1]"] ;
157 -> 159 ;
160 [label="entropy = 0.0\nsamples = 6\nvalue = [6, 0, 0]"] ;
156 -> 160 ;
161 [label="entropy = 0.0\nsamples = 3\nvalue = [0, 3, 0]"] ;
39 -> 161 ;
162 [label="X[6] <= 0.143\nentropy = 1.296\nsamples = 39\nvalue = [15, 3, 21]"] ;
38 -> 162 ;
163 [label="X[6] <= 0.13\nentropy = 1.273\nsamples = 25\nvalue = [6, 3, 16]"] ;
162 -> 163 ;
164 [label="X[6] <= 0.128\nentropy = 1.433\nsamples = 19\nvalue = [6, 3, 10]"] ;
163 -> 164 ;
165 [label="X[2] <= 0.133\nentropy = 1.198\nsamples = 16\nvalue = [5, 1, 10]"] ;
164 -> 165 ;
166 [label="X[6] <= 0.118\nentropy = 0.918\nsamples = 15\nvalue = [5, 0, 10]"] ;
165 -> 166 ;
167 [label="X[3] <= 0.393\nentropy = 0.503\nsamples = 9\nvalue = [1, 0, 8]"] ;
166 -> 167 ;
168 [label="entropy = 0.0\nsamples = 1\nvalue = [1, 0, 0]"] ;
167 -> 168 ;
169 [label="entropy = 0.0\nsamples = 8\nvalue = [0, 0, 8]"] ;
167 -> 169 ;
170 [label="X[6] <= 0.124\nentropy = 0.918\nsamples = 6\nvalue = [4, 0, 2]"] ;
166 -> 170 ;
171 [label="entropy = 0.0\nsamples = 3\nvalue = [3, 0, 0]"] ;
170 -> 171 ;
172 [label="X[0] <= 0.46\nentropy = 0.918\nsamples = 3\nvalue = [1, 0, 2]"] ;
170 -> 172 ;
173 [label="entropy = 0.0\nsamples = 1\nvalue = [1, 0, 0]"] ;
172 -> 173 ;
174 [label="entropy = 0.0\nsamples = 2\nvalue = [0, 0, 2]"] ;
172 -> 174 ;
175 [label="entropy = 0.0\nsamples = 1\nvalue = [0, 1, 0]"] ;
165 -> 175 ;
176 [label="X[4] <= 0.201\nentropy = 0.918\nsamples = 3\nvalue = [1, 2, 0]"] ;
164 -> 176 ;
177 [label="entropy = 0.0\nsamples = 1\nvalue = [1, 0, 0]"] ;
176 -> 177 ;
178 [label="entropy = 0.0\nsamples = 2\nvalue = [0, 2, 0]"] ;
176 -> 178 ;
179 [label="entropy = 0.0\nsamples = 6\nvalue = [0, 0, 6]"] ;
163 -> 179 ;
180 [label="X[4] <= 0.21\nentropy = 0.94\nsamples = 14\nvalue = [9, 0, 5]"] ;
162 -> 180 ;
181 [label="X[4] <= 0.196\nentropy = 0.544\nsamples = 8\nvalue = [7, 0, 1]"] ;
180 -> 181 ;
182 [label="entropy = 0.0\nsamples = 1\nvalue = [0, 0, 1]"] ;
181 -> 182 ;
183 [label="entropy = 0.0\nsamples = 7\nvalue = [7, 0, 0]"] ;
181 -> 183 ;
184 [label="X[6] <= 0.157\nentropy = 0.918\nsamples = 6\nvalue = [2, 0, 4]"] ;
180 -> 184 ;
185 [label="X[1] <= 0.358\nentropy = 0.918\nsamples = 3\nvalue = [2, 0, 1]"] ;
184 -> 185 ;
186 [label="entropy = 0.0\nsamples = 1\nvalue = [0, 0, 1]"] ;
185 -> 186 ;
187 [label="entropy = 0.0\nsamples = 2\nvalue = [2, 0, 0]"] ;
185 -> 187 ;
188 [label="entropy = 0.0\nsamples = 3\nvalue = [0, 0, 3]"] ;
184 -> 188 ;
189 [label="X[1] <= 0.373\nentropy = 1.399\nsamples = 52\nvalue = [22, 24, 6]"] ;
5 -> 189 ;
190 [label="X[4] <= 0.204\nentropy = 0.954\nsamples = 24\nvalue = [15, 9, 0]"] ;
189 -> 190 ;
191 [label="X[2] <= 0.133\nentropy = 0.764\nsamples = 9\nvalue = [2, 7, 0]"] ;
190 -> 191 ;
192 [label="entropy = 0.0\nsamples = 5\nvalue = [0, 5, 0]"] ;
191 -> 192 ;
193 [label="X[2] <= 0.142\nentropy = 1.0\nsamples = 4\nvalue = [2, 2, 0]"] ;
191 -> 193 ;
194 [label="entropy = 0.0\nsamples = 2\nvalue = [2, 0, 0]"] ;
193 -> 194 ;
195 [label="entropy = 0.0\nsamples = 2\nvalue = [0, 2, 0]"] ;
193 -> 195 ;
196 [label="X[4] <= 0.224\nentropy = 0.567\nsamples = 15\nvalue = [13, 2, 0]"] ;
190 -> 196 ;
197 [label="entropy = 0.0\nsamples = 11\nvalue = [11, 0, 0]"] ;
196 -> 197 ;
198 [label="X[5] <= 0.143\nentropy = 1.0\nsamples = 4\nvalue = [2, 2, 0]"] ;
196 -> 198 ;
199 [label="entropy = 0.0\nsamples = 2\nvalue = [0, 2, 0]"] ;
198 -> 199 ;
200 [label="entropy = 0.0\nsamples = 2\nvalue = [2, 0, 0]"] ;
198 -> 200 ;
201 [label="X[3] <= 0.564\nentropy = 1.459\nsamples = 28\nvalue = [7, 15, 6]"] ;
189 -> 201 ;
202 [label="X[4] <= 0.204\nentropy = 1.484\nsamples = 17\nvalue = [3, 8, 6]"] ;
201 -> 202 ;
203 [label="entropy = 0.0\nsamples = 4\nvalue = [0, 4, 0]"] ;
202 -> 203 ;
204 [label="X[5] <= 0.118\nentropy = 1.526\nsamples = 13\nvalue = [3, 4, 6]"] ;
202 -> 204 ;
205 [label="X[4] <= 0.217\nentropy = 0.971\nsamples = 5\nvalue = [2, 0, 3]"] ;
204 -> 205 ;
206 [label="X[5] <= 0.114\nentropy = 0.918\nsamples = 3\nvalue = [2, 0, 1]"] ;
205 -> 206 ;
207 [label="entropy = 0.0\nsamples = 1\nvalue = [0, 0, 1]"] ;
206 -> 207 ;
208 [label="entropy = 0.0\nsamples = 2\nvalue = [2, 0, 0]"] ;
206 -> 208 ;
209 [label="entropy = 0.0\nsamples = 2\nvalue = [0, 0, 2]"] ;
205 -> 209 ;
210 [label="X[8] <= 0.5\nentropy = 1.406\nsamples = 8\nvalue = [1, 4, 3]"] ;
204 -> 210 ;
211 [label="X[5] <= 0.129\nentropy = 1.371\nsamples = 5\nvalue = [1, 1, 3]"] ;
210 -> 211 ;
212 [label="X[1] <= 0.39\nentropy = 1.0\nsamples = 2\nvalue = [1, 1, 0]"] ;
211 -> 212 ;
213 [label="entropy = 0.0\nsamples = 1\nvalue = [1, 0, 0]"] ;
212 -> 213 ;
214 [label="entropy = 0.0\nsamples = 1\nvalue = [0, 1, 0]"] ;
212 -> 214 ;
215 [label="entropy = 0.0\nsamples = 3\nvalue = [0, 0, 3]"] ;
211 -> 215 ;
216 [label="entropy = 0.0\nsamples = 3\nvalue = [0, 3, 0]"] ;
210 -> 216 ;
217 [label="X[0] <= 0.483\nentropy = 0.946\nsamples = 11\nvalue = [4, 7, 0]"] ;
201 -> 217 ;
218 [label="entropy = 0.0\nsamples = 2\nvalue = [2, 0, 0]"] ;
217 -> 218 ;
219 [label="X[3] <= 0.581\nentropy = 0.764\nsamples = 9\nvalue = [2, 7, 0]"] ;
217 -> 219 ;
220 [label="X[3] <= 0.576\nentropy = 1.0\nsamples = 4\nvalue = [2, 2, 0]"] ;
219 -> 220 ;
221 [label="entropy = 0.0\nsamples = 2\nvalue = [0, 2, 0]"] ;
220 -> 221 ;
222 [label="entropy = 0.0\nsamples = 2\nvalue = [2, 0, 0]"] ;
220 -> 222 ;
223 [label="entropy = 0.0\nsamples = 5\nvalue = [0, 5, 0]"] ;
219 -> 223 ;
224 [label="X[5] <= 0.125\nentropy = 1.358\nsamples = 121\nvalue = [37, 15, 69]"] ;
4 -> 224 ;
225 [label="X[6] <= 0.153\nentropy = 0.592\nsamples = 35\nvalue = [5, 0, 30]"] ;
224 -> 225 ;
226 [label="entropy = 0.0\nsamples = 19\nvalue = [0, 0, 19]"] ;
225 -> 226 ;
227 [label="X[3] <= 0.602\nentropy = 0.896\nsamples = 16\nvalue = [5, 0, 11]"] ;
225 -> 227 ;
228 [label="X[3] <= 0.591\nentropy = 0.994\nsamples = 11\nvalue = [5, 0, 6]"] ;
227 -> 228 ;
229 [label="X[8] <= 0.5\nentropy = 0.918\nsamples = 9\nvalue = [3, 0, 6]"] ;
228 -> 229 ;
230 [label="X[5] <= 0.1\nentropy = 0.592\nsamples = 7\nvalue = [1, 0, 6]"] ;
229 -> 230 ;
231 [label="X[5] <= 0.095\nentropy = 1.0\nsamples = 2\nvalue = [1, 0, 1]"] ;
230 -> 231 ;
232 [label="entropy = 0.0\nsamples = 1\nvalue = [0, 0, 1]"] ;
231 -> 232 ;
233 [label="entropy = 0.0\nsamples = 1\nvalue = [1, 0, 0]"] ;
231 -> 233 ;
234 [label="entropy = 0.0\nsamples = 5\nvalue = [0, 0, 5]"] ;
230 -> 234 ;
235 [label="entropy = 0.0\nsamples = 2\nvalue = [2, 0, 0]"] ;
229 -> 235 ;
236 [label="entropy = 0.0\nsamples = 2\nvalue = [2, 0, 0]"] ;
228 -> 236 ;
237 [label="entropy = 0.0\nsamples = 5\nvalue = [0, 0, 5]"] ;
227 -> 237 ;
238 [label="X[6] <= 0.154\nentropy = 1.487\nsamples = 86\nvalue = [32, 15, 39]"] ;
224 -> 238 ;
239 [label="X[5] <= 0.153\nentropy = 0.959\nsamples = 21\nvalue = [8, 0, 13]"] ;
238 -> 239 ;
240 [label="X[6] <= 0.144\nentropy = 0.75\nsamples = 14\nvalue = [3, 0, 11]"] ;
239 -> 240 ;
241 [label="entropy = 0.0\nsamples = 8\nvalue = [0, 0, 8]"] ;
240 -> 241 ;
242 [label="X[4] <= 0.293\nentropy = 1.0\nsamples = 6\nvalue = [3, 0, 3]"] ;
240 -> 242 ;
243 [label="X[3] <= 0.564\nentropy = 0.811\nsamples = 4\nvalue = [3, 0, 1]"] ;
242 -> 243 ;
244 [label="entropy = 0.0\nsamples = 1\nvalue = [0, 0, 1]"] ;
243 -> 244 ;
245 [label="entropy = 0.0\nsamples = 3\nvalue = [3, 0, 0]"] ;
243 -> 245 ;
246 [label="entropy = 0.0\nsamples = 2\nvalue = [0, 0, 2]"] ;
242 -> 246 ;
247 [label="X[2] <= 0.113\nentropy = 0.863\nsamples = 7\nvalue = [5, 0, 2]"] ;
239 -> 247 ;
248 [label="entropy = 0.0\nsamples = 1\nvalue = [0, 0, 1]"] ;
247 -> 248 ;
249 [label="X[6] <= 0.148\nentropy = 0.65\nsamples = 6\nvalue = [5, 0, 1]"] ;
247 -> 249 ;
250 [label="entropy = 0.0\nsamples = 5\nvalue = [5, 0, 0]"] ;
249 -> 250 ;
251 [label="entropy = 0.0\nsamples = 1\nvalue = [0, 0, 1]"] ;
249 -> 251 ;
252 [label="X[3] <= 0.69\nentropy = 1.548\nsamples = 65\nvalue = [24, 15, 26]"] ;
238 -> 252 ;
253 [label="X[1] <= 0.382\nentropy = 1.499\nsamples = 43\nvalue = [21, 9, 13]"] ;
252 -> 253 ;
254 [label="X[3] <= 0.666\nentropy = 1.53\nsamples = 18\nvalue = [4, 8, 6]"] ;
253 -> 254 ;
255 [label="X[3] <= 0.589\nentropy = 1.406\nsamples = 16\nvalue = [2, 8, 6]"] ;
254 -> 255 ;
256 [label="X[2] <= 0.127\nentropy = 1.5\nsamples = 4\nvalue = [2, 1, 1]"] ;
255 -> 256 ;
257 [label="entropy = 0.0\nsamples = 2\nvalue = [2, 0, 0]"] ;
256 -> 257 ;
258 [label="X[5] <= 0.153\nentropy = 1.0\nsamples = 2\nvalue = [0, 1, 1]"] ;
256 -> 258 ;
259 [label="entropy = 0.0\nsamples = 1\nvalue = [0, 1, 0]"] ;
258 -> 259 ;
260 [label="entropy = 0.0\nsamples = 1\nvalue = [0, 0, 1]"] ;
258 -> 260 ;
261 [label="X[6] <= 0.159\nentropy = 0.98\nsamples = 12\nvalue = [0, 7, 5]"] ;
255 -> 261 ;
262 [label="entropy = 0.0\nsamples = 2\nvalue = [0, 0, 2]"] ;
261 -> 262 ;
263 [label="X[1] <= 0.358\nentropy = 0.881\nsamples = 10\nvalue = [0, 7, 3]"] ;
261 -> 263 ;
264 [label="entropy = 0.0\nsamples = 2\nvalue = [0, 0, 2]"] ;
263 -> 264 ;
265 [label="X[6] <= 0.178\nentropy = 0.544\nsamples = 8\nvalue = [0, 7, 1]"] ;
263 -> 265 ;
266 [label="entropy = 0.0\nsamples = 6\nvalue = [0, 6, 0]"] ;
265 -> 266 ;
267 [label="X[6] <= 0.179\nentropy = 1.0\nsamples = 2\nvalue = [0, 1, 1]"] ;
265 -> 267 ;
268 [label="entropy = 0.0\nsamples = 1\nvalue = [0, 0, 1]"] ;
267 -> 268 ;
269 [label="entropy = 0.0\nsamples = 1\nvalue = [0, 1, 0]"] ;
267 -> 269 ;
270 [label="entropy = 0.0\nsamples = 2\nvalue = [2, 0, 0]"] ;
254 -> 270 ;
271 [label="X[5] <= 0.175\nentropy = 1.078\nsamples = 25\nvalue = [17, 1, 7]"] ;
253 -> 271 ;
272 [label="X[0] <= 0.493\nentropy = 0.918\nsamples = 21\nvalue = [14, 0, 7]"] ;
271 -> 272 ;
273 [label="entropy = 0.0\nsamples = 2\nvalue = [0, 0, 2]"] ;
272 -> 273 ;
274 [label="X[5] <= 0.153\nentropy = 0.831\nsamples = 19\nvalue = [14, 0, 5]"] ;
272 -> 274 ;
275 [label="X[4] <= 0.284\nentropy = 0.592\nsamples = 14\nvalue = [12, 0, 2]"] ;
274 -> 275 ;
276 [label="X[7] <= 0.5\nentropy = 0.971\nsamples = 5\nvalue = [3, 0, 2]"] ;
275 -> 276 ;
277 [label="X[6] <= 0.166\nentropy = 0.918\nsamples = 3\nvalue = [1, 0, 2]"] ;
276 -> 277 ;
278 [label="entropy = 0.0\nsamples = 1\nvalue = [1, 0, 0]"] ;
277 -> 278 ;
279 [label="entropy = 0.0\nsamples = 2\nvalue = [0, 0, 2]"] ;
277 -> 279 ;
280 [label="entropy = 0.0\nsamples = 2\nvalue = [2, 0, 0]"] ;
276 -> 280 ;
281 [label="entropy = 0.0\nsamples = 9\nvalue = [9, 0, 0]"] ;
275 -> 281 ;
282 [label="X[3] <= 0.639\nentropy = 0.971\nsamples = 5\nvalue = [2, 0, 3]"] ;
274 -> 282 ;
283 [label="entropy = 0.0\nsamples = 2\nvalue = [2, 0, 0]"] ;
282 -> 283 ;
284 [label="entropy = 0.0\nsamples = 3\nvalue = [0, 0, 3]"] ;
282 -> 284 ;
285 [label="X[2] <= 0.122\nentropy = 0.811\nsamples = 4\nvalue = [3, 1, 0]"] ;
271 -> 285 ;
286 [label="entropy = 0.0\nsamples = 1\nvalue = [0, 1, 0]"] ;
285 -> 286 ;
287 [label="entropy = 0.0\nsamples = 3\nvalue = [3, 0, 0]"] ;
285 -> 287 ;
288 [label="X[1] <= 0.425\nentropy = 1.352\nsamples = 22\nvalue = [3, 6, 13]"] ;
252 -> 288 ;
289 [label="X[6] <= 0.172\nentropy = 0.978\nsamples = 17\nvalue = [1, 3, 13]"] ;
288 -> 289 ;
290 [label="X[4] <= 0.361\nentropy = 1.5\nsamples = 4\nvalue = [1, 2, 1]"] ;
289 -> 290 ;
291 [label="entropy = 0.0\nsamples = 2\nvalue = [0, 2, 0]"] ;
290 -> 291 ;
292 [label="X[5] <= 0.148\nentropy = 1.0\nsamples = 2\nvalue = [1, 0, 1]"] ;
290 -> 292 ;
293 [label="entropy = 0.0\nsamples = 1\nvalue = [0, 0, 1]"] ;
292 -> 293 ;
294 [label="entropy = 0.0\nsamples = 1\nvalue = [1, 0, 0]"] ;
292 -> 294 ;
295 [label="X[0] <= 0.502\nentropy = 0.391\nsamples = 13\nvalue = [0, 1, 12]"] ;
289 -> 295 ;
296 [label="entropy = 0.0\nsamples = 1\nvalue = [0, 1, 0]"] ;
295 -> 296 ;
297 [label="entropy = 0.0\nsamples = 12\nvalue = [0, 0, 12]"] ;
295 -> 297 ;
298 [label="X[0] <= 0.613\nentropy = 0.971\nsamples = 5\nvalue = [2, 3, 0]"] ;
288 -> 298 ;
299 [label="entropy = 0.0\nsamples = 2\nvalue = [0, 2, 0]"] ;
298 -> 299 ;
300 [label="X[5] <= 0.248\nentropy = 0.918\nsamples = 3\nvalue = [2, 1, 0]"] ;
298 -> 300 ;
301 [label="entropy = 0.0\nsamples = 2\nvalue = [2, 0, 0]"] ;
300 -> 301 ;
302 [label="entropy = 0.0\nsamples = 1\nvalue = [0, 1, 0]"] ;
300 -> 302 ;
303 [label="X[6] <= 0.112\nentropy = 0.75\nsamples = 808\nvalue = [86, 37, 685]"] ;
1 -> 303 ;
304 [label="X[5] <= 0.032\nentropy = 0.364\nsamples = 534\nvalue = [24, 7, 503]"] ;
303 -> 304 ;
305 [label="X[6] <= 0.064\nentropy = 0.05\nsamples = 177\nvalue = [0, 1, 176]"] ;
304 -> 305 ;
306 [label="entropy = 0.0\nsamples = 176\nvalue = [0, 0, 176]"] ;
305 -> 306 ;
307 [label="entropy = 0.0\nsamples = 1\nvalue = [0, 1, 0]"] ;
305 -> 307 ;
308 [label="X[4] <= 0.071\nentropy = 0.477\nsamples = 357\nvalue = [24, 6, 327]"] ;
304 -> 308 ;
309 [label="X[3] <= 0.193\nentropy = 0.895\nsamples = 39\nvalue = [8, 1, 30]"] ;
308 -> 309 ;
310 [label="X[0] <= 0.297\nentropy = 0.812\nsamples = 37\nvalue = [6, 1, 30]"] ;
309 -> 310 ;
311 [label="X[6] <= 0.041\nentropy = 0.971\nsamples = 5\nvalue = [3, 0, 2]"] ;
310 -> 311 ;
312 [label="X[5] <= 0.033\nentropy = 0.918\nsamples = 3\nvalue = [1, 0, 2]"] ;
311 -> 312 ;
313 [label="entropy = 0.0\nsamples = 1\nvalue = [1, 0, 0]"] ;
312 -> 313 ;
314 [label="entropy = 0.0\nsamples = 2\nvalue = [0, 0, 2]"] ;
312 -> 314 ;
315 [label="entropy = 0.0\nsamples = 2\nvalue = [2, 0, 0]"] ;
311 -> 315 ;
316 [label="X[3] <= 0.17\nentropy = 0.645\nsamples = 32\nvalue = [3, 1, 28]"] ;
310 -> 316 ;
317 [label="X[5] <= 0.033\nentropy = 0.297\nsamples = 19\nvalue = [0, 1, 18]"] ;
316 -> 317 ;
318 [label="X[0] <= 0.322\nentropy = 0.918\nsamples = 3\nvalue = [0, 1, 2]"] ;
317 -> 318 ;
319 [label="entropy = 0.0\nsamples = 1\nvalue = [0, 1, 0]"] ;
318 -> 319 ;
320 [label="entropy = 0.0\nsamples = 2\nvalue = [0, 0, 2]"] ;
318 -> 320 ;
321 [label="entropy = 0.0\nsamples = 16\nvalue = [0, 0, 16]"] ;
317 -> 321 ;
322 [label="X[3] <= 0.179\nentropy = 0.779\nsamples = 13\nvalue = [3, 0, 10]"] ;
316 -> 322 ;
323 [label="X[6] <= 0.054\nentropy = 0.985\nsamples = 7\nvalue = [3, 0, 4]"] ;
322 -> 323 ;
324 [label="entropy = 0.0\nsamples = 2\nvalue = [0, 0, 2]"] ;
323 -> 324 ;
325 [label="X[6] <= 0.057\nentropy = 0.971\nsamples = 5\nvalue = [3, 0, 2]"] ;
323 -> 325 ;
326 [label="entropy = 0.0\nsamples = 2\nvalue = [2, 0, 0]"] ;
325 -> 326 ;
327 [label="X[5] <= 0.035\nentropy = 0.918\nsamples = 3\nvalue = [1, 0, 2]"] ;
325 -> 327 ;
328 [label="entropy = 0.0\nsamples = 1\nvalue = [1, 0, 0]"] ;
327 -> 328 ;
329 [label="entropy = 0.0\nsamples = 2\nvalue = [0, 0, 2]"] ;
327 -> 329 ;
330 [label="entropy = 0.0\nsamples = 6\nvalue = [0, 0, 6]"] ;
322 -> 330 ;
331 [label="entropy = 0.0\nsamples = 2\nvalue = [2, 0, 0]"] ;
309 -> 331 ;
332 [label="X[6] <= 0.07\nentropy = 0.403\nsamples = 318\nvalue = [16, 5, 297]"] ;
308 -> 332 ;
333 [label="entropy = 0.0\nsamples = 92\nvalue = [0, 0, 92]"] ;
332 -> 333 ;
334 [label="X[4] <= 0.098\nentropy = 0.52\nsamples = 226\nvalue = [16, 5, 205]"] ;
332 -> 334 ;
335 [label="X[0] <= 0.407\nentropy = 1.03\nsamples = 33\nvalue = [5, 3, 25]"] ;
334 -> 335 ;
336 [label="X[3] <= 0.227\nentropy = 0.902\nsamples = 31\nvalue = [3, 3, 25]"] ;
335 -> 336 ;
337 [label="X[2] <= 0.113\nentropy = 0.61\nsamples = 20\nvalue = [3, 0, 17]"] ;
336 -> 337 ;
338 [label="X[4] <= 0.076\nentropy = 0.485\nsamples = 19\nvalue = [2, 0, 17]"] ;
337 -> 338 ;
339 [label="entropy = 0.0\nsamples = 1\nvalue = [1, 0, 0]"] ;
338 -> 339 ;
340 [label="X[5] <= 0.037\nentropy = 0.31\nsamples = 18\nvalue = [1, 0, 17]"] ;
338 -> 340 ;
341 [label="X[4] <= 0.084\nentropy = 1.0\nsamples = 2\nvalue = [1, 0, 1]"] ;
340 -> 341 ;
342 [label="entropy = 0.0\nsamples = 1\nvalue = [1, 0, 0]"] ;
341 -> 342 ;
343 [label="entropy = 0.0\nsamples = 1\nvalue = [0, 0, 1]"] ;
341 -> 343 ;
344 [label="entropy = 0.0\nsamples = 16\nvalue = [0, 0, 16]"] ;
340 -> 344 ;
345 [label="entropy = 0.0\nsamples = 1\nvalue = [1, 0, 0]"] ;
337 -> 345 ;
346 [label="X[5] <= 0.056\nentropy = 0.845\nsamples = 11\nvalue = [0, 3, 8]"] ;
336 -> 346 ;
347 [label="X[4] <= 0.089\nentropy = 1.0\nsamples = 6\nvalue = [0, 3, 3]"] ;
346 -> 347 ;
348 [label="entropy = 0.0\nsamples = 3\nvalue = [0, 0, 3]"] ;
347 -> 348 ;
349 [label="entropy = 0.0\nsamples = 3\nvalue = [0, 3, 0]"] ;
347 -> 349 ;
350 [label="entropy = 0.0\nsamples = 5\nvalue = [0, 0, 5]"] ;
346 -> 350 ;
351 [label="entropy = 0.0\nsamples = 2\nvalue = [2, 0, 0]"] ;
335 -> 351 ;
352 [label="X[6] <= 0.095\nentropy = 0.398\nsamples = 193\nvalue = [11, 2, 180]"] ;
334 -> 352 ;
353 [label="X[4] <= 0.112\nentropy = 0.138\nsamples = 103\nvalue = [2, 0, 101]"] ;
352 -> 353 ;
354 [label="X[4] <= 0.111\nentropy = 0.454\nsamples = 21\nvalue = [2, 0, 19]"] ;
353 -> 354 ;
355 [label="X[0] <= 0.373\nentropy = 0.286\nsamples = 20\nvalue = [1, 0, 19]"] ;
354 -> 355 ;
356 [label="X[6] <= 0.08\nentropy = 0.65\nsamples = 6\nvalue = [1, 0, 5]"] ;
355 -> 356 ;
357 [label="entropy = 0.0\nsamples = 5\nvalue = [0, 0, 5]"] ;
356 -> 357 ;
358 [label="entropy = 0.0\nsamples = 1\nvalue = [1, 0, 0]"] ;
356 -> 358 ;
359 [label="entropy = 0.0\nsamples = 14\nvalue = [0, 0, 14]"] ;
355 -> 359 ;
360 [label="entropy = 0.0\nsamples = 1\nvalue = [1, 0, 0]"] ;
354 -> 360 ;
361 [label="entropy = 0.0\nsamples = 82\nvalue = [0, 0, 82]"] ;
353 -> 361 ;
362 [label="X[4] <= 0.169\nentropy = 0.619\nsamples = 90\nvalue = [9, 2, 79]"] ;
352 -> 362 ;
363 [label="X[2] <= 0.113\nentropy = 0.889\nsamples = 48\nvalue = [8, 2, 38]"] ;
362 -> 363 ;
364 [label="X[3] <= 0.353\nentropy = 0.61\nsamples = 40\nvalue = [6, 0, 34]"] ;
363 -> 364 ;
365 [label="X[4] <= 0.158\nentropy = 0.736\nsamples = 29\nvalue = [6, 0, 23]"] ;
364 -> 365 ;
366 [label="X[5] <= 0.064\nentropy = 0.605\nsamples = 27\nvalue = [4, 0, 23]"] ;
365 -> 366 ;
367 [label="X[5] <= 0.062\nentropy = 0.918\nsamples = 12\nvalue = [4, 0, 8]"] ;
366 -> 367 ;
368 [label="X[2] <= 0.107\nentropy = 0.722\nsamples = 10\nvalue = [2, 0, 8]"] ;
367 -> 368 ;
369 [label="X[1] <= 0.322\nentropy = 0.503\nsamples = 9\nvalue = [1, 0, 8]"] ;
368 -> 369 ;
370 [label="entropy = 0.0\nsamples = 7\nvalue = [0, 0, 7]"] ;
369 -> 370 ;
371 [label="X[2] <= 0.102\nentropy = 1.0\nsamples = 2\nvalue = [1, 0, 1]"] ;
369 -> 371 ;
372 [label="entropy = 0.0\nsamples = 1\nvalue = [1, 0, 0]"] ;
371 -> 372 ;
373 [label="entropy = 0.0\nsamples = 1\nvalue = [0, 0, 1]"] ;
371 -> 373 ;
374 [label="entropy = 0.0\nsamples = 1\nvalue = [1, 0, 0]"] ;
368 -> 374 ;
375 [label="entropy = 0.0\nsamples = 2\nvalue = [2, 0, 0]"] ;
367 -> 375 ;
376 [label="entropy = 0.0\nsamples = 15\nvalue = [0, 0, 15]"] ;
366 -> 376 ;
377 [label="entropy = 0.0\nsamples = 2\nvalue = [2, 0, 0]"] ;
365 -> 377 ;
378 [label="entropy = 0.0\nsamples = 11\nvalue = [0, 0, 11]"] ;
364 -> 378 ;
379 [label="X[0] <= 0.428\nentropy = 1.5\nsamples = 8\nvalue = [2, 2, 4]"] ;
363 -> 379 ;
380 [label="X[5] <= 0.058\nentropy = 0.811\nsamples = 4\nvalue = [0, 1, 3]"] ;
379 -> 380 ;
381 [label="entropy = 0.0\nsamples = 1\nvalue = [0, 1, 0]"] ;
380 -> 381 ;
382 [label="entropy = 0.0\nsamples = 3\nvalue = [0, 0, 3]"] ;
380 -> 382 ;
383 [label="X[4] <= 0.164\nentropy = 1.5\nsamples = 4\nvalue = [2, 1, 1]"] ;
379 -> 383 ;
384 [label="entropy = 0.0\nsamples = 2\nvalue = [2, 0, 0]"] ;
383 -> 384 ;
385 [label="X[2] <= 0.122\nentropy = 1.0\nsamples = 2\nvalue = [0, 1, 1]"] ;
383 -> 385 ;
386 [label="entropy = 0.0\nsamples = 1\nvalue = [0, 0, 1]"] ;
385 -> 386 ;
387 [label="entropy = 0.0\nsamples = 1\nvalue = [0, 1, 0]"] ;
385 -> 387 ;
388 [label="X[5] <= 0.139\nentropy = 0.162\nsamples = 42\nvalue = [1, 0, 41]"] ;
362 -> 388 ;
389 [label="entropy = 0.0\nsamples = 41\nvalue = [0, 0, 41]"] ;
388 -> 389 ;
390 [label="entropy = 0.0\nsamples = 1\nvalue = [1, 0, 0]"] ;
388 -> 390 ;
391 [label="X[4] <= 0.216\nentropy = 1.227\nsamples = 274\nvalue = [62, 30, 182]"] ;
303 -> 391 ;
392 [label="X[6] <= 0.155\nentropy = 1.39\nsamples = 138\nvalue = [30, 27, 81]"] ;
391 -> 392 ;
393 [label="X[2] <= 0.122\nentropy = 1.241\nsamples = 114\nvalue = [23, 15, 76]"] ;
392 -> 393 ;
394 [label="X[6] <= 0.114\nentropy = 1.076\nsamples = 89\nvalue = [17, 7, 65]"] ;
393 -> 394 ;
395 [label="X[0] <= 0.445\nentropy = 0.985\nsamples = 7\nvalue = [0, 3, 4]"] ;
394 -> 395 ;
396 [label="X[3] <= 0.381\nentropy = 0.722\nsamples = 5\nvalue = [0, 1, 4]"] ;
395 -> 396 ;
397 [label="X[1] <= 0.33\nentropy = 1.0\nsamples = 2\nvalue = [0, 1, 1]"] ;
396 -> 397 ;
398 [label="entropy = 0.0\nsamples = 1\nvalue = [0, 1, 0]"] ;
397 -> 398 ;
399 [label="entropy = 0.0\nsamples = 1\nvalue = [0, 0, 1]"] ;
397 -> 399 ;
400 [label="entropy = 0.0\nsamples = 3\nvalue = [0, 0, 3]"] ;
396 -> 400 ;
401 [label="entropy = 0.0\nsamples = 2\nvalue = [0, 2, 0]"] ;
395 -> 401 ;
402 [label="X[4] <= 0.137\nentropy = 1.001\nsamples = 82\nvalue = [17, 4, 61]"] ;
394 -> 402 ;
403 [label="X[5] <= 0.087\nentropy = 1.189\nsamples = 12\nvalue = [1, 3, 8]"] ;
402 -> 403 ;
404 [label="X[0] <= 0.407\nentropy = 0.922\nsamples = 10\nvalue = [1, 1, 8]"] ;
403 -> 404 ;
405 [label="X[5] <= 0.062\nentropy = 1.5\nsamples = 4\nvalue = [1, 1, 2]"] ;
404 -> 405 ;
406 [label="entropy = 0.0\nsamples = 2\nvalue = [0, 0, 2]"] ;
405 -> 406 ;
407 [label="X[4] <= 0.112\nentropy = 1.0\nsamples = 2\nvalue = [1, 1, 0]"] ;
405 -> 407 ;
408 [label="entropy = 0.0\nsamples = 1\nvalue = [1, 0, 0]"] ;
407 -> 408 ;
409 [label="entropy = 0.0\nsamples = 1\nvalue = [0, 1, 0]"] ;
407 -> 409 ;
410 [label="entropy = 0.0\nsamples = 6\nvalue = [0, 0, 6]"] ;
404 -> 410 ;
411 [label="entropy = 0.0\nsamples = 2\nvalue = [0, 2, 0]"] ;
403 -> 411 ;
412 [label="X[3] <= 0.497\nentropy = 0.878\nsamples = 70\nvalue = [16, 1, 53]"] ;
402 -> 412 ;
413 [label="X[5] <= 0.097\nentropy = 0.761\nsamples = 68\nvalue = [15, 0, 53]"] ;
412 -> 413 ;
414 [label="X[5] <= 0.096\nentropy = 0.889\nsamples = 49\nvalue = [15, 0, 34]"] ;
413 -> 414 ;
415 [label="X[4] <= 0.207\nentropy = 0.851\nsamples = 47\nvalue = [13, 0, 34]"] ;
414 -> 415 ;
416 [label="X[5] <= 0.077\nentropy = 0.802\nsamples = 45\nvalue = [11, 0, 34]"] ;
415 -> 416 ;
417 [label="X[5] <= 0.069\nentropy = 0.989\nsamples = 16\nvalue = [7, 0, 9]"] ;
416 -> 417 ;
418 [label="entropy = 0.0\nsamples = 5\nvalue = [0, 0, 5]"] ;
417 -> 418 ;
419 [label="X[5] <= 0.076\nentropy = 0.946\nsamples = 11\nvalue = [7, 0, 4]"] ;
417 -> 419 ;
420 [label="X[5] <= 0.075\nentropy = 1.0\nsamples = 8\nvalue = [4, 0, 4]"] ;
419 -> 420 ;
421 [label="X[6] <= 0.122\nentropy = 0.918\nsamples = 6\nvalue = [4, 0, 2]"] ;
420 -> 421 ;
422 [label="X[2] <= 0.107\nentropy = 0.918\nsamples = 3\nvalue = [1, 0, 2]"] ;
421 -> 422 ;
423 [label="entropy = 0.0\nsamples = 1\nvalue = [1, 0, 0]"] ;
422 -> 423 ;
424 [label="entropy = 0.0\nsamples = 2\nvalue = [0, 0, 2]"] ;
422 -> 424 ;
425 [label="entropy = 0.0\nsamples = 3\nvalue = [3, 0, 0]"] ;
421 -> 425 ;
426 [label="entropy = 0.0\nsamples = 2\nvalue = [0, 0, 2]"] ;
420 -> 426 ;
427 [label="entropy = 0.0\nsamples = 3\nvalue = [3, 0, 0]"] ;
419 -> 427 ;
428 [label="X[0] <= 0.463\nentropy = 0.579\nsamples = 29\nvalue = [4, 0, 25]"] ;
416 -> 428 ;
429 [label="X[3] <= 0.347\nentropy = 0.276\nsamples = 21\nvalue = [1, 0, 20]"] ;
428 -> 429 ;
430 [label="entropy = 0.0\nsamples = 1\nvalue = [1, 0, 0]"] ;
429 -> 430 ;
431 [label="entropy = 0.0\nsamples = 20\nvalue = [0, 0, 20]"] ;
429 -> 431 ;
432 [label="X[0] <= 0.477\nentropy = 0.954\nsamples = 8\nvalue = [3, 0, 5]"] ;
428 -> 432 ;
433 [label="X[6] <= 0.14\nentropy = 0.971\nsamples = 5\nvalue = [3, 0, 2]"] ;
432 -> 433 ;
434 [label="X[4] <= 0.182\nentropy = 0.918\nsamples = 3\nvalue = [1, 0, 2]"] ;
433 -> 434 ;
435 [label="entropy = 0.0\nsamples = 2\nvalue = [0, 0, 2]"] ;
434 -> 435 ;
436 [label="entropy = 0.0\nsamples = 1\nvalue = [1, 0, 0]"] ;
434 -> 436 ;
437 [label="entropy = 0.0\nsamples = 2\nvalue = [2, 0, 0]"] ;
433 -> 437 ;
438 [label="entropy = 0.0\nsamples = 3\nvalue = [0, 0, 3]"] ;
432 -> 438 ;
439 [label="entropy = 0.0\nsamples = 2\nvalue = [2, 0, 0]"] ;
415 -> 439 ;
440 [label="entropy = 0.0\nsamples = 2\nvalue = [2, 0, 0]"] ;
414 -> 440 ;
441 [label="entropy = 0.0\nsamples = 19\nvalue = [0, 0, 19]"] ;
413 -> 441 ;
442 [label="X[6] <= 0.138\nentropy = 1.0\nsamples = 2\nvalue = [1, 1, 0]"] ;
412 -> 442 ;
443 [label="entropy = 0.0\nsamples = 1\nvalue = [1, 0, 0]"] ;
442 -> 443 ;
444 [label="entropy = 0.0\nsamples = 1\nvalue = [0, 1, 0]"] ;
442 -> 444 ;
445 [label="X[5] <= 0.089\nentropy = 1.541\nsamples = 25\nvalue = [6, 8, 11]"] ;
393 -> 445 ;
446 [label="X[4] <= 0.206\nentropy = 0.722\nsamples = 5\nvalue = [1, 4, 0]"] ;
445 -> 446 ;
447 [label="entropy = 0.0\nsamples = 4\nvalue = [0, 4, 0]"] ;
446 -> 447 ;
448 [label="entropy = 0.0\nsamples = 1\nvalue = [1, 0, 0]"] ;
446 -> 448 ;
449 [label="X[5] <= 0.102\nentropy = 1.439\nsamples = 20\nvalue = [5, 4, 11]"] ;
445 -> 449 ;
450 [label="X[3] <= 0.461\nentropy = 0.544\nsamples = 8\nvalue = [0, 1, 7]"] ;
449 -> 450 ;
451 [label="entropy = 0.0\nsamples = 5\nvalue = [0, 0, 5]"] ;
450 -> 451 ;
452 [label="X[1] <= 0.352\nentropy = 0.918\nsamples = 3\nvalue = [0, 1, 2]"] ;
450 -> 452 ;
453 [label="entropy = 0.0\nsamples = 1\nvalue = [0, 1, 0]"] ;
452 -> 453 ;
454 [label="entropy = 0.0\nsamples = 2\nvalue = [0, 0, 2]"] ;
452 -> 454 ;
455 [label="X[2] <= 0.138\nentropy = 1.555\nsamples = 12\nvalue = [5, 3, 4]"] ;
449 -> 455 ;
456 [label="X[5] <= 0.126\nentropy = 0.863\nsamples = 7\nvalue = [5, 0, 2]"] ;
455 -> 456 ;
457 [label="entropy = 0.0\nsamples = 5\nvalue = [5, 0, 0]"] ;
456 -> 457 ;
458 [label="entropy = 0.0\nsamples = 2\nvalue = [0, 0, 2]"] ;
456 -> 458 ;
459 [label="X[0] <= 0.465\nentropy = 0.971\nsamples = 5\nvalue = [0, 3, 2]"] ;
455 -> 459 ;
460 [label="entropy = 0.0\nsamples = 3\nvalue = [0, 3, 0]"] ;
459 -> 460 ;
461 [label="entropy = 0.0\nsamples = 2\nvalue = [0, 0, 2]"] ;
459 -> 461 ;
462 [label="X[1] <= 0.352\nentropy = 1.49\nsamples = 24\nvalue = [7, 12, 5]"] ;
392 -> 462 ;
463 [label="X[0] <= 0.425\nentropy = 0.592\nsamples = 7\nvalue = [0, 6, 1]"] ;
462 -> 463 ;
464 [label="entropy = 0.0\nsamples = 1\nvalue = [0, 0, 1]"] ;
463 -> 464 ;
465 [label="entropy = 0.0\nsamples = 6\nvalue = [0, 6, 0]"] ;
463 -> 465 ;
466 [label="X[5] <= 0.123\nentropy = 1.549\nsamples = 17\nvalue = [7, 6, 4]"] ;
462 -> 466 ;
467 [label="X[6] <= 0.159\nentropy = 1.493\nsamples = 14\nvalue = [7, 3, 4]"] ;
466 -> 467 ;
468 [label="X[1] <= 0.368\nentropy = 1.0\nsamples = 4\nvalue = [0, 2, 2]"] ;
467 -> 468 ;
469 [label="entropy = 0.0\nsamples = 2\nvalue = [0, 0, 2]"] ;
468 -> 469 ;
470 [label="entropy = 0.0\nsamples = 2\nvalue = [0, 2, 0]"] ;
468 -> 470 ;
471 [label="X[2] <= 0.117\nentropy = 1.157\nsamples = 10\nvalue = [7, 1, 2]"] ;
467 -> 471 ;
472 [label="X[6] <= 0.168\nentropy = 0.918\nsamples = 3\nvalue = [1, 0, 2]"] ;
471 -> 472 ;
473 [label="entropy = 0.0\nsamples = 2\nvalue = [0, 0, 2]"] ;
472 -> 473 ;
474 [label="entropy = 0.0\nsamples = 1\nvalue = [1, 0, 0]"] ;
472 -> 474 ;
475 [label="X[4] <= 0.209\nentropy = 0.592\nsamples = 7\nvalue = [6, 1, 0]"] ;
471 -> 475 ;
476 [label="entropy = 0.0\nsamples = 5\nvalue = [5, 0, 0]"] ;
475 -> 476 ;
477 [label="X[6] <= 0.172\nentropy = 1.0\nsamples = 2\nvalue = [1, 1, 0]"] ;
475 -> 477 ;
478 [label="entropy = 0.0\nsamples = 1\nvalue = [1, 0, 0]"] ;
477 -> 478 ;
479 [label="entropy = 0.0\nsamples = 1\nvalue = [0, 1, 0]"] ;
477 -> 479 ;
480 [label="entropy = 0.0\nsamples = 3\nvalue = [0, 3, 0]"] ;
466 -> 480 ;
481 [label="X[6] <= 0.142\nentropy = 0.931\nsamples = 136\nvalue = [32, 3, 101]"] ;
391 -> 481 ;
482 [label="X[5] <= 0.141\nentropy = 0.292\nsamples = 39\nvalue = [2, 0, 37]"] ;
481 -> 482 ;
483 [label="X[2] <= 0.09\nentropy = 0.176\nsamples = 38\nvalue = [1, 0, 37]"] ;
482 -> 483 ;
484 [label="entropy = 0.0\nsamples = 1\nvalue = [1, 0, 0]"] ;
483 -> 484 ;
485 [label="entropy = 0.0\nsamples = 37\nvalue = [0, 0, 37]"] ;
483 -> 485 ;
486 [label="entropy = 0.0\nsamples = 1\nvalue = [1, 0, 0]"] ;
482 -> 486 ;
487 [label="X[3] <= 0.504\nentropy = 1.075\nsamples = 97\nvalue = [30, 3, 64]"] ;
481 -> 487 ;
488 [label="entropy = 0.0\nsamples = 4\nvalue = [4, 0, 0]"] ;
487 -> 488 ;
489 [label="X[1] <= 0.363\nentropy = 1.045\nsamples = 93\nvalue = [26, 3, 64]"] ;
487 -> 489 ;
490 [label="X[4] <= 0.246\nentropy = 0.863\nsamples = 7\nvalue = [0, 2, 5]"] ;
489 -> 490 ;
491 [label="X[3] <= 0.55\nentropy = 0.918\nsamples = 3\nvalue = [0, 2, 1]"] ;
490 -> 491 ;
492 [label="entropy = 0.0\nsamples = 1\nvalue = [0, 0, 1]"] ;
491 -> 492 ;
493 [label="entropy = 0.0\nsamples = 2\nvalue = [0, 2, 0]"] ;
491 -> 493 ;
494 [label="entropy = 0.0\nsamples = 4\nvalue = [0, 0, 4]"] ;
490 -> 494 ;
495 [label="X[5] <= 0.179\nentropy = 0.969\nsamples = 86\nvalue = [26, 1, 59]"] ;
489 -> 495 ;
496 [label="X[6] <= 0.161\nentropy = 0.888\nsamples = 85\nvalue = [26, 0, 59]"] ;
495 -> 496 ;
497 [label="X[6] <= 0.153\nentropy = 0.516\nsamples = 26\nvalue = [3, 0, 23]"] ;
496 -> 497 ;
498 [label="X[1] <= 0.377\nentropy = 0.811\nsamples = 12\nvalue = [3, 0, 9]"] ;
497 -> 498 ;
499 [label="entropy = 0.0\nsamples = 6\nvalue = [0, 0, 6]"] ;
498 -> 499 ;
500 [label="X[4] <= 0.291\nentropy = 1.0\nsamples = 6\nvalue = [3, 0, 3]"] ;
498 -> 500 ;
501 [label="entropy = 0.0\nsamples = 3\nvalue = [3, 0, 0]"] ;
500 -> 501 ;
502 [label="entropy = 0.0\nsamples = 3\nvalue = [0, 0, 3]"] ;
500 -> 502 ;
503 [label="entropy = 0.0\nsamples = 14\nvalue = [0, 0, 14]"] ;
497 -> 503 ;
504 [label="X[4] <= 0.224\nentropy = 0.965\nsamples = 59\nvalue = [23, 0, 36]"] ;
496 -> 504 ;
505 [label="entropy = 0.0\nsamples = 3\nvalue = [3, 0, 0]"] ;
504 -> 505 ;
506 [label="X[6] <= 0.17\nentropy = 0.94\nsamples = 56\nvalue = [20, 0, 36]"] ;
504 -> 506 ;
507 [label="X[5] <= 0.104\nentropy = 0.999\nsamples = 25\nvalue = [13, 0, 12]"] ;
506 -> 507 ;
508 [label="entropy = 0.0\nsamples = 4\nvalue = [4, 0, 0]"] ;
507 -> 508 ;
509 [label="X[3] <= 0.557\nentropy = 0.985\nsamples = 21\nvalue = [9, 0, 12]"] ;
507 -> 509 ;
510 [label="entropy = 0.0\nsamples = 5\nvalue = [0, 0, 5]"] ;
509 -> 510 ;
511 [label="X[2] <= 0.127\nentropy = 0.989\nsamples = 16\nvalue = [9, 0, 7]"] ;
509 -> 511 ;
512 [label="X[1] <= 0.387\nentropy = 0.764\nsamples = 9\nvalue = [7, 0, 2]"] ;
511 -> 512 ;
513 [label="X[1] <= 0.373\nentropy = 0.918\nsamples = 3\nvalue = [1, 0, 2]"] ;
512 -> 513 ;
514 [label="entropy = 0.0\nsamples = 1\nvalue = [1, 0, 0]"] ;
513 -> 514 ;
515 [label="entropy = 0.0\nsamples = 2\nvalue = [0, 0, 2]"] ;
513 -> 515 ;
516 [label="entropy = 0.0\nsamples = 6\nvalue = [6, 0, 0]"] ;
512 -> 516 ;
517 [label="X[1] <= 0.385\nentropy = 0.863\nsamples = 7\nvalue = [2, 0, 5]"] ;
511 -> 517 ;
518 [label="entropy = 0.0\nsamples = 1\nvalue = [1, 0, 0]"] ;
517 -> 518 ;
519 [label="X[1] <= 0.405\nentropy = 0.65\nsamples = 6\nvalue = [1, 0, 5]"] ;
517 -> 519 ;
520 [label="entropy = 0.0\nsamples = 5\nvalue = [0, 0, 5]"] ;
519 -> 520 ;
521 [label="entropy = 0.0\nsamples = 1\nvalue = [1, 0, 0]"] ;
519 -> 521 ;
522 [label="X[0] <= 0.512\nentropy = 0.771\nsamples = 31\nvalue = [7, 0, 24]"] ;
506 -> 522 ;
523 [label="X[3] <= 0.549\nentropy = 0.371\nsamples = 14\nvalue = [1, 0, 13]"] ;
522 -> 523 ;
524 [label="entropy = 0.0\nsamples = 1\nvalue = [1, 0, 0]"] ;
523 -> 524 ;
525 [label="entropy = 0.0\nsamples = 13\nvalue = [0, 0, 13]"] ;
523 -> 525 ;
526 [label="X[6] <= 0.174\nentropy = 0.937\nsamples = 17\nvalue = [6, 0, 11]"] ;
522 -> 526 ;
527 [label="entropy = 0.0\nsamples = 6\nvalue = [0, 0, 6]"] ;
526 -> 527 ;
528 [label="X[5] <= 0.159\nentropy = 0.994\nsamples = 11\nvalue = [6, 0, 5]"] ;
526 -> 528 ;
529 [label="X[0] <= 0.522\nentropy = 0.918\nsamples = 9\nvalue = [6, 0, 3]"] ;
528 -> 529 ;
530 [label="entropy = 0.0\nsamples = 3\nvalue = [3, 0, 0]"] ;
529 -> 530 ;
531 [label="X[5] <= 0.145\nentropy = 1.0\nsamples = 6\nvalue = [3, 0, 3]"] ;
529 -> 531 ;
532 [label="entropy = 0.0\nsamples = 2\nvalue = [0, 0, 2]"] ;
531 -> 532 ;
533 [label="X[1] <= 0.385\nentropy = 0.811\nsamples = 4\nvalue = [3, 0, 1]"] ;
531 -> 533 ;
534 [label="entropy = 0.0\nsamples = 1\nvalue = [0, 0, 1]"] ;
533 -> 534 ;
535 [label="entropy = 0.0\nsamples = 3\nvalue = [3, 0, 0]"] ;
533 -> 535 ;
536 [label="entropy = 0.0\nsamples = 2\nvalue = [0, 0, 2]"] ;
528 -> 536 ;
537 [label="entropy = 0.0\nsamples = 1\nvalue = [0, 1, 0]"] ;
495 -> 537 ;
538 [label="X[6] <= 0.29\nentropy = 1.385\nsamples = 2075\nvalue = [805, 1036, 234]"] ;
0 -> 538 [labeldistance=2.5, labelangle=-45, headlabel="False"] ;
539 [label="X[4] <= 0.309\nentropy = 1.519\nsamples = 949\nvalue = [429, 322, 198]"] ;
538 -> 539 ;
540 [label="X[9] <= 0.5\nentropy = 1.377\nsamples = 312\nvalue = [94, 176, 42]"] ;
539 -> 540 ;
541 [label="X[6] <= 0.187\nentropy = 1.167\nsamples = 216\nvalue = [55, 145, 16]"] ;
540 -> 541 ;
542 [label="X[0] <= 0.522\nentropy = 1.518\nsamples = 30\nvalue = [13, 11, 6]"] ;
541 -> 542 ;
543 [label="X[4] <= 0.244\nentropy = 1.417\nsamples = 24\nvalue = [10, 11, 3]"] ;
542 -> 543 ;
544 [label="X[2] <= 0.108\nentropy = 1.493\nsamples = 14\nvalue = [4, 7, 3]"] ;
543 -> 544 ;
545 [label="entropy = 0.0\nsamples = 2\nvalue = [2, 0, 0]"] ;
544 -> 545 ;
546 [label="X[0] <= 0.512\nentropy = 1.384\nsamples = 12\nvalue = [2, 7, 3]"] ;
544 -> 546 ;
547 [label="X[4] <= 0.168\nentropy = 1.157\nsamples = 10\nvalue = [1, 7, 2]"] ;
546 -> 547 ;
548 [label="entropy = 0.0\nsamples = 1\nvalue = [1, 0, 0]"] ;
547 -> 548 ;
549 [label="X[2] <= 0.142\nentropy = 0.764\nsamples = 9\nvalue = [0, 7, 2]"] ;
547 -> 549 ;
550 [label="X[5] <= 0.07\nentropy = 0.544\nsamples = 8\nvalue = [0, 7, 1]"] ;
549 -> 550 ;
551 [label="entropy = 0.0\nsamples = 1\nvalue = [0, 0, 1]"] ;
550 -> 551 ;
552 [label="entropy = 0.0\nsamples = 7\nvalue = [0, 7, 0]"] ;
550 -> 552 ;
553 [label="entropy = 0.0\nsamples = 1\nvalue = [0, 0, 1]"] ;
549 -> 553 ;
554 [label="X[0] <= 0.517\nentropy = 1.0\nsamples = 2\nvalue = [1, 0, 1]"] ;
546 -> 554 ;
555 [label="entropy = 0.0\nsamples = 1\nvalue = [1, 0, 0]"] ;
554 -> 555 ;
556 [label="entropy = 0.0\nsamples = 1\nvalue = [0, 0, 1]"] ;
554 -> 556 ;
557 [label="X[0] <= 0.493\nentropy = 0.971\nsamples = 10\nvalue = [6, 4, 0]"] ;
543 -> 557 ;
558 [label="entropy = 0.0\nsamples = 4\nvalue = [4, 0, 0]"] ;
557 -> 558 ;
559 [label="X[5] <= 0.165\nentropy = 0.918\nsamples = 6\nvalue = [2, 4, 0]"] ;
557 -> 559 ;
560 [label="entropy = 0.0\nsamples = 3\nvalue = [0, 3, 0]"] ;
559 -> 560 ;
561 [label="X[4] <= 0.295\nentropy = 0.918\nsamples = 3\nvalue = [2, 1, 0]"] ;
559 -> 561 ;
562 [label="entropy = 0.0\nsamples = 2\nvalue = [2, 0, 0]"] ;
561 -> 562 ;
563 [label="entropy = 0.0\nsamples = 1\nvalue = [0, 1, 0]"] ;
561 -> 563 ;
564 [label="X[2] <= 0.127\nentropy = 1.0\nsamples = 6\nvalue = [3, 0, 3]"] ;
542 -> 564 ;
565 [label="entropy = 0.0\nsamples = 2\nvalue = [0, 0, 2]"] ;
564 -> 565 ;
566 [label="X[2] <= 0.138\nentropy = 0.811\nsamples = 4\nvalue = [3, 0, 1]"] ;
564 -> 566 ;
567 [label="entropy = 0.0\nsamples = 3\nvalue = [3, 0, 0]"] ;
566 -> 567 ;
568 [label="entropy = 0.0\nsamples = 1\nvalue = [0, 0, 1]"] ;
566 -> 568 ;
569 [label="X[4] <= 0.241\nentropy = 1.052\nsamples = 186\nvalue = [42, 134, 10]"] ;
541 -> 569 ;
570 [label="X[3] <= 0.526\nentropy = 0.605\nsamples = 54\nvalue = [4, 48, 2]"] ;
569 -> 570 ;
571 [label="X[0] <= 0.472\nentropy = 1.371\nsamples = 5\nvalue = [3, 1, 1]"] ;
570 -> 571 ;
572 [label="entropy = 0.0\nsamples = 3\nvalue = [3, 0, 0]"] ;
571 -> 572 ;
573 [label="X[5] <= 0.106\nentropy = 1.0\nsamples = 2\nvalue = [0, 1, 1]"] ;
571 -> 573 ;
574 [label="entropy = 0.0\nsamples = 1\nvalue = [0, 0, 1]"] ;
573 -> 574 ;
575 [label="entropy = 0.0\nsamples = 1\nvalue = [0, 1, 0]"] ;
573 -> 575 ;
576 [label="X[0] <= 0.55\nentropy = 0.287\nsamples = 49\nvalue = [1, 47, 1]"] ;
570 -> 576 ;
577 [label="X[6] <= 0.192\nentropy = 0.146\nsamples = 48\nvalue = [1, 47, 0]"] ;
576 -> 577 ;
578 [label="X[2] <= 0.148\nentropy = 0.592\nsamples = 7\nvalue = [1, 6, 0]"] ;
577 -> 578 ;
579 [label="entropy = 0.0\nsamples = 6\nvalue = [0, 6, 0]"] ;
578 -> 579 ;
580 [label="entropy = 0.0\nsamples = 1\nvalue = [1, 0, 0]"] ;
578 -> 580 ;
581 [label="entropy = 0.0\nsamples = 41\nvalue = [0, 41, 0]"] ;
577 -> 581 ;
582 [label="entropy = 0.0\nsamples = 1\nvalue = [0, 0, 1]"] ;
576 -> 582 ;
583 [label="X[3] <= 0.757\nentropy = 1.165\nsamples = 132\nvalue = [38, 86, 8]"] ;
569 -> 583 ;
584 [label="X[4] <= 0.306\nentropy = 1.316\nsamples = 85\nvalue = [29, 48, 8]"] ;
583 -> 584 ;
585 [label="X[1] <= 0.422\nentropy = 1.267\nsamples = 82\nvalue = [29, 47, 6]"] ;
584 -> 585 ;
586 [label="X[3] <= 0.752\nentropy = 1.134\nsamples = 63\nvalue = [19, 41, 3]"] ;
585 -> 586 ;
587 [label="X[2] <= 0.1\nentropy = 1.054\nsamples = 60\nvalue = [17, 41, 2]"] ;
586 -> 587 ;
588 [label="entropy = 0.0\nsamples = 1\nvalue = [0, 0, 1]"] ;
587 -> 588 ;
589 [label="X[6] <= 0.233\nentropy = 0.982\nsamples = 59\nvalue = [17, 41, 1]"] ;
587 -> 589 ;
590 [label="X[5] <= 0.175\nentropy = 1.078\nsamples = 45\nvalue = [16, 28, 1]"] ;
589 -> 590 ;
591 [label="X[5] <= 0.114\nentropy = 0.947\nsamples = 41\nvalue = [15, 26, 0]"] ;
590 -> 591 ;
592 [label="entropy = 0.0\nsamples = 3\nvalue = [0, 3, 0]"] ;
591 -> 592 ;
593 [label="X[1] <= 0.377\nentropy = 0.968\nsamples = 38\nvalue = [15, 23, 0]"] ;
591 -> 593 ;
594 [label="entropy = 0.0\nsamples = 3\nvalue = [3, 0, 0]"] ;
593 -> 594 ;
595 [label="X[1] <= 0.398\nentropy = 0.928\nsamples = 35\nvalue = [12, 23, 0]"] ;
593 -> 595 ;
596 [label="X[5] <= 0.168\nentropy = 0.414\nsamples = 12\nvalue = [1, 11, 0]"] ;
595 -> 596 ;
597 [label="entropy = 0.0\nsamples = 11\nvalue = [0, 11, 0]"] ;
596 -> 597 ;
598 [label="entropy = 0.0\nsamples = 1\nvalue = [1, 0, 0]"] ;
596 -> 598 ;
599 [label="X[5] <= 0.161\nentropy = 0.999\nsamples = 23\nvalue = [11, 12, 0]"] ;
595 -> 599 ;
600 [label="X[5] <= 0.15\nentropy = 0.982\nsamples = 19\nvalue = [11, 8, 0]"] ;
599 -> 600 ;
601 [label="X[3] <= 0.688\nentropy = 0.997\nsamples = 15\nvalue = [7, 8, 0]"] ;
600 -> 601 ;
602 [label="X[3] <= 0.667\nentropy = 0.946\nsamples = 11\nvalue = [7, 4, 0]"] ;
601 -> 602 ;
603 [label="X[0] <= 0.51\nentropy = 1.0\nsamples = 8\nvalue = [4, 4, 0]"] ;
602 -> 603 ;
604 [label="X[1] <= 0.407\nentropy = 0.918\nsamples = 6\nvalue = [2, 4, 0]"] ;
603 -> 604 ;
605 [label="X[3] <= 0.641\nentropy = 0.918\nsamples = 3\nvalue = [2, 1, 0]"] ;
604 -> 605 ;
606 [label="entropy = 0.0\nsamples = 2\nvalue = [2, 0, 0]"] ;
605 -> 606 ;
607 [label="entropy = 0.0\nsamples = 1\nvalue = [0, 1, 0]"] ;
605 -> 607 ;
608 [label="entropy = 0.0\nsamples = 3\nvalue = [0, 3, 0]"] ;
604 -> 608 ;
609 [label="entropy = 0.0\nsamples = 2\nvalue = [2, 0, 0]"] ;
603 -> 609 ;
610 [label="entropy = 0.0\nsamples = 3\nvalue = [3, 0, 0]"] ;
602 -> 610 ;
611 [label="entropy = 0.0\nsamples = 4\nvalue = [0, 4, 0]"] ;
601 -> 611 ;
612 [label="entropy = 0.0\nsamples = 4\nvalue = [4, 0, 0]"] ;
600 -> 612 ;
613 [label="entropy = 0.0\nsamples = 4\nvalue = [0, 4, 0]"] ;
599 -> 613 ;
614 [label="X[4] <= 0.267\nentropy = 1.5\nsamples = 4\nvalue = [1, 2, 1]"] ;
590 -> 614 ;
615 [label="X[2] <= 0.142\nentropy = 1.0\nsamples = 2\nvalue = [1, 0, 1]"] ;
614 -> 615 ;
616 [label="entropy = 0.0\nsamples = 1\nvalue = [0, 0, 1]"] ;
615 -> 616 ;
617 [label="entropy = 0.0\nsamples = 1\nvalue = [1, 0, 0]"] ;
615 -> 617 ;
618 [label="entropy = 0.0\nsamples = 2\nvalue = [0, 2, 0]"] ;
614 -> 618 ;
619 [label="X[1] <= 0.403\nentropy = 0.371\nsamples = 14\nvalue = [1, 13, 0]"] ;
589 -> 619 ;
620 [label="X[2] <= 0.163\nentropy = 0.918\nsamples = 3\nvalue = [1, 2, 0]"] ;
619 -> 620 ;
621 [label="entropy = 0.0\nsamples = 2\nvalue = [0, 2, 0]"] ;
620 -> 621 ;
622 [label="entropy = 0.0\nsamples = 1\nvalue = [1, 0, 0]"] ;
620 -> 622 ;
623 [label="entropy = 0.0\nsamples = 11\nvalue = [0, 11, 0]"] ;
619 -> 623 ;
624 [label="X[1] <= 0.417\nentropy = 0.918\nsamples = 3\nvalue = [2, 0, 1]"] ;
586 -> 624 ;
625 [label="entropy = 0.0\nsamples = 1\nvalue = [0, 0, 1]"] ;
624 -> 625 ;
626 [label="entropy = 0.0\nsamples = 2\nvalue = [2, 0, 0]"] ;
624 -> 626 ;
627 [label="X[1] <= 0.433\nentropy = 1.433\nsamples = 19\nvalue = [10, 6, 3]"] ;
585 -> 627 ;
628 [label="X[0] <= 0.522\nentropy = 1.53\nsamples = 9\nvalue = [4, 2, 3]"] ;
627 -> 628 ;
629 [label="X[0] <= 0.487\nentropy = 0.918\nsamples = 3\nvalue = [0, 2, 1]"] ;
628 -> 629 ;
630 [label="entropy = 0.0\nsamples = 1\nvalue = [0, 0, 1]"] ;
629 -> 630 ;
631 [label="entropy = 0.0\nsamples = 2\nvalue = [0, 2, 0]"] ;
629 -> 631 ;
632 [label="X[0] <= 0.532\nentropy = 0.918\nsamples = 6\nvalue = [4, 0, 2]"] ;
628 -> 632 ;
633 [label="entropy = 0.0\nsamples = 3\nvalue = [3, 0, 0]"] ;
632 -> 633 ;
634 [label="X[6] <= 0.223\nentropy = 0.918\nsamples = 3\nvalue = [1, 0, 2]"] ;
632 -> 634 ;
635 [label="entropy = 0.0\nsamples = 2\nvalue = [0, 0, 2]"] ;
634 -> 635 ;
636 [label="entropy = 0.0\nsamples = 1\nvalue = [1, 0, 0]"] ;
634 -> 636 ;
637 [label="X[6] <= 0.258\nentropy = 0.971\nsamples = 10\nvalue = [6, 4, 0]"] ;
627 -> 637 ;
638 [label="X[3] <= 0.729\nentropy = 1.0\nsamples = 8\nvalue = [4, 4, 0]"] ;
637 -> 638 ;
639 [label="X[6] <= 0.22\nentropy = 0.918\nsamples = 6\nvalue = [4, 2, 0]"] ;
638 -> 639 ;
640 [label="X[5] <= 0.153\nentropy = 0.918\nsamples = 3\nvalue = [1, 2, 0]"] ;
639 -> 640 ;
641 [label="entropy = 0.0\nsamples = 2\nvalue = [0, 2, 0]"] ;
640 -> 641 ;
642 [label="entropy = 0.0\nsamples = 1\nvalue = [1, 0, 0]"] ;
640 -> 642 ;
643 [label="entropy = 0.0\nsamples = 3\nvalue = [3, 0, 0]"] ;
639 -> 643 ;
644 [label="entropy = 0.0\nsamples = 2\nvalue = [0, 2, 0]"] ;
638 -> 644 ;
645 [label="entropy = 0.0\nsamples = 2\nvalue = [2, 0, 0]"] ;
637 -> 645 ;
646 [label="X[2] <= 0.145\nentropy = 0.918\nsamples = 3\nvalue = [0, 1, 2]"] ;
584 -> 646 ;
647 [label="entropy = 0.0\nsamples = 2\nvalue = [0, 0, 2]"] ;
646 -> 647 ;
648 [label="entropy = 0.0\nsamples = 1\nvalue = [0, 1, 0]"] ;
646 -> 648 ;
649 [label="X[3] <= 0.789\nentropy = 0.705\nsamples = 47\nvalue = [9, 38, 0]"] ;
583 -> 649 ;
650 [label="X[6] <= 0.276\nentropy = 0.286\nsamples = 20\nvalue = [1, 19, 0]"] ;
649 -> 650 ;
651 [label="entropy = 0.0\nsamples = 17\nvalue = [0, 17, 0]"] ;
650 -> 651 ;
652 [label="X[1] <= 0.417\nentropy = 0.918\nsamples = 3\nvalue = [1, 2, 0]"] ;
650 -> 652 ;
653 [label="entropy = 0.0\nsamples = 1\nvalue = [1, 0, 0]"] ;
652 -> 653 ;
654 [label="entropy = 0.0\nsamples = 2\nvalue = [0, 2, 0]"] ;
652 -> 654 ;
655 [label="X[5] <= 0.158\nentropy = 0.877\nsamples = 27\nvalue = [8, 19, 0]"] ;
649 -> 655 ;
656 [label="entropy = 0.0\nsamples = 2\nvalue = [2, 0, 0]"] ;
655 -> 656 ;
657 [label="X[4] <= 0.251\nentropy = 0.795\nsamples = 25\nvalue = [6, 19, 0]"] ;
655 -> 657 ;
658 [label="entropy = 0.0\nsamples = 2\nvalue = [2, 0, 0]"] ;
657 -> 658 ;
659 [label="X[3] <= 0.877\nentropy = 0.667\nsamples = 23\nvalue = [4, 19, 0]"] ;
657 -> 659 ;
660 [label="X[3] <= 0.793\nentropy = 0.323\nsamples = 17\nvalue = [1, 16, 0]"] ;
659 -> 660 ;
661 [label="entropy = 0.0\nsamples = 1\nvalue = [1, 0, 0]"] ;
660 -> 661 ;
662 [label="entropy = 0.0\nsamples = 16\nvalue = [0, 16, 0]"] ;
660 -> 662 ;
663 [label="X[0] <= 0.538\nentropy = 1.0\nsamples = 6\nvalue = [3, 3, 0]"] ;
659 -> 663 ;
664 [label="entropy = 0.0\nsamples = 3\nvalue = [3, 0, 0]"] ;
663 -> 664 ;
665 [label="entropy = 0.0\nsamples = 3\nvalue = [0, 3, 0]"] ;
663 -> 665 ;
666 [label="X[0] <= 0.498\nentropy = 1.565\nsamples = 96\nvalue = [39, 31, 26]"] ;
540 -> 666 ;
667 [label="X[6] <= 0.193\nentropy = 0.989\nsamples = 16\nvalue = [0, 7, 9]"] ;
666 -> 667 ;
668 [label="X[2] <= 0.148\nentropy = 0.503\nsamples = 9\nvalue = [0, 1, 8]"] ;
667 -> 668 ;
669 [label="entropy = 0.0\nsamples = 8\nvalue = [0, 0, 8]"] ;
668 -> 669 ;
670 [label="entropy = 0.0\nsamples = 1\nvalue = [0, 1, 0]"] ;
668 -> 670 ;
671 [label="X[3] <= 0.468\nentropy = 0.592\nsamples = 7\nvalue = [0, 6, 1]"] ;
667 -> 671 ;
672 [label="entropy = 0.0\nsamples = 1\nvalue = [0, 0, 1]"] ;
671 -> 672 ;
673 [label="entropy = 0.0\nsamples = 6\nvalue = [0, 6, 0]"] ;
671 -> 673 ;
674 [label="X[2] <= 0.133\nentropy = 1.501\nsamples = 80\nvalue = [39, 24, 17]"] ;
666 -> 674 ;
675 [label="X[6] <= 0.194\nentropy = 1.488\nsamples = 28\nvalue = [10, 5, 13]"] ;
674 -> 675 ;
676 [label="X[3] <= 0.629\nentropy = 0.961\nsamples = 13\nvalue = [5, 0, 8]"] ;
675 -> 676 ;
677 [label="X[5] <= 0.118\nentropy = 0.722\nsamples = 10\nvalue = [2, 0, 8]"] ;
676 -> 677 ;
678 [label="X[3] <= 0.565\nentropy = 1.0\nsamples = 4\nvalue = [2, 0, 2]"] ;
677 -> 678 ;
679 [label="entropy = 0.0\nsamples = 2\nvalue = [0, 0, 2]"] ;
678 -> 679 ;
680 [label="entropy = 0.0\nsamples = 2\nvalue = [2, 0, 0]"] ;
678 -> 680 ;
681 [label="entropy = 0.0\nsamples = 6\nvalue = [0, 0, 6]"] ;
677 -> 681 ;
682 [label="entropy = 0.0\nsamples = 3\nvalue = [3, 0, 0]"] ;
676 -> 682 ;
683 [label="X[2] <= 0.127\nentropy = 1.585\nsamples = 15\nvalue = [5, 5, 5]"] ;
675 -> 683 ;
684 [label="X[5] <= 0.137\nentropy = 1.0\nsamples = 8\nvalue = [4, 4, 0]"] ;
683 -> 684 ;
685 [label="X[0] <= 0.507\nentropy = 0.722\nsamples = 5\nvalue = [1, 4, 0]"] ;
684 -> 685 ;
686 [label="entropy = 0.0\nsamples = 1\nvalue = [1, 0, 0]"] ;
685 -> 686 ;
687 [label="entropy = 0.0\nsamples = 4\nvalue = [0, 4, 0]"] ;
685 -> 687 ;
688 [label="entropy = 0.0\nsamples = 3\nvalue = [3, 0, 0]"] ;
684 -> 688 ;
689 [label="X[6] <= 0.222\nentropy = 1.149\nsamples = 7\nvalue = [1, 1, 5]"] ;
683 -> 689 ;
690 [label="entropy = 0.0\nsamples = 5\nvalue = [0, 0, 5]"] ;
689 -> 690 ;
691 [label="X[1] <= 0.415\nentropy = 1.0\nsamples = 2\nvalue = [1, 1, 0]"] ;
689 -> 691 ;
692 [label="entropy = 0.0\nsamples = 1\nvalue = [0, 1, 0]"] ;
691 -> 692 ;
693 [label="entropy = 0.0\nsamples = 1\nvalue = [1, 0, 0]"] ;
691 -> 693 ;
694 [label="X[2] <= 0.153\nentropy = 1.285\nsamples = 52\nvalue = [29, 19, 4]"] ;
674 -> 694 ;
695 [label="X[0] <= 0.522\nentropy = 1.254\nsamples = 45\nvalue = [28, 13, 4]"] ;
694 -> 695 ;
696 [label="X[0] <= 0.517\nentropy = 1.0\nsamples = 14\nvalue = [7, 7, 0]"] ;
695 -> 696 ;
697 [label="X[6] <= 0.222\nentropy = 0.764\nsamples = 9\nvalue = [7, 2, 0]"] ;
696 -> 697 ;
698 [label="entropy = 0.0\nsamples = 6\nvalue = [6, 0, 0]"] ;
697 -> 698 ;
699 [label="X[1] <= 0.407\nentropy = 0.918\nsamples = 3\nvalue = [1, 2, 0]"] ;
697 -> 699 ;
700 [label="entropy = 0.0\nsamples = 2\nvalue = [0, 2, 0]"] ;
699 -> 700 ;
701 [label="entropy = 0.0\nsamples = 1\nvalue = [1, 0, 0]"] ;
699 -> 701 ;
702 [label="entropy = 0.0\nsamples = 5\nvalue = [0, 5, 0]"] ;
696 -> 702 ;
703 [label="X[5] <= 0.152\nentropy = 1.22\nsamples = 31\nvalue = [21, 6, 4]"] ;
695 -> 703 ;
704 [label="X[5] <= 0.124\nentropy = 0.567\nsamples = 15\nvalue = [13, 0, 2]"] ;
703 -> 704 ;
705 [label="X[4] <= 0.265\nentropy = 1.0\nsamples = 4\nvalue = [2, 0, 2]"] ;
704 -> 705 ;
706 [label="entropy = 0.0\nsamples = 2\nvalue = [2, 0, 0]"] ;
705 -> 706 ;
707 [label="entropy = 0.0\nsamples = 2\nvalue = [0, 0, 2]"] ;
705 -> 707 ;
708 [label="entropy = 0.0\nsamples = 11\nvalue = [11, 0, 0]"] ;
704 -> 708 ;
709 [label="X[2] <= 0.142\nentropy = 1.406\nsamples = 16\nvalue = [8, 6, 2]"] ;
703 -> 709 ;
710 [label="X[6] <= 0.272\nentropy = 0.986\nsamples = 9\nvalue = [7, 1, 1]"] ;
709 -> 710 ;
711 [label="X[6] <= 0.257\nentropy = 0.544\nsamples = 8\nvalue = [7, 0, 1]"] ;
710 -> 711 ;
712 [label="entropy = 0.0\nsamples = 6\nvalue = [6, 0, 0]"] ;
711 -> 712 ;
713 [label="X[4] <= 0.287\nentropy = 1.0\nsamples = 2\nvalue = [1, 0, 1]"] ;
711 -> 713 ;
714 [label="entropy = 0.0\nsamples = 1\nvalue = [1, 0, 0]"] ;
713 -> 714 ;
715 [label="entropy = 0.0\nsamples = 1\nvalue = [0, 0, 1]"] ;
713 -> 715 ;
716 [label="entropy = 0.0\nsamples = 1\nvalue = [0, 1, 0]"] ;
710 -> 716 ;
717 [label="X[5] <= 0.206\nentropy = 1.149\nsamples = 7\nvalue = [1, 5, 1]"] ;
709 -> 717 ;
718 [label="X[3] <= 0.697\nentropy = 0.65\nsamples = 6\nvalue = [0, 5, 1]"] ;
717 -> 718 ;
719 [label="X[2] <= 0.148\nentropy = 1.0\nsamples = 2\nvalue = [0, 1, 1]"] ;
718 -> 719 ;
720 [label="entropy = 0.0\nsamples = 1\nvalue = [0, 0, 1]"] ;
719 -> 720 ;
721 [label="entropy = 0.0\nsamples = 1\nvalue = [0, 1, 0]"] ;
719 -> 721 ;
722 [label="entropy = 0.0\nsamples = 4\nvalue = [0, 4, 0]"] ;
718 -> 722 ;
723 [label="entropy = 0.0\nsamples = 1\nvalue = [1, 0, 0]"] ;
717 -> 723 ;
724 [label="X[0] <= 0.525\nentropy = 0.592\nsamples = 7\nvalue = [1, 6, 0]"] ;
694 -> 724 ;
725 [label="X[6] <= 0.227\nentropy = 1.0\nsamples = 2\nvalue = [1, 1, 0]"] ;
724 -> 725 ;
726 [label="entropy = 0.0\nsamples = 1\nvalue = [1, 0, 0]"] ;
725 -> 726 ;
727 [label="entropy = 0.0\nsamples = 1\nvalue = [0, 1, 0]"] ;
725 -> 727 ;
728 [label="entropy = 0.0\nsamples = 5\nvalue = [0, 5, 0]"] ;
724 -> 728 ;
729 [label="X[6] <= 0.234\nentropy = 1.472\nsamples = 637\nvalue = [335, 146, 156]"] ;
539 -> 729 ;
730 [label="X[4] <= 0.335\nentropy = 1.375\nsamples = 197\nvalue = [98, 21, 78]"] ;
729 -> 730 ;
731 [label="X[3] <= 0.802\nentropy = 1.463\nsamples = 45\nvalue = [24, 11, 10]"] ;
730 -> 731 ;
732 [label="X[2] <= 0.122\nentropy = 1.366\nsamples = 40\nvalue = [24, 7, 9]"] ;
731 -> 732 ;
733 [label="X[0] <= 0.505\nentropy = 1.252\nsamples = 6\nvalue = [1, 4, 1]"] ;
732 -> 733 ;
734 [label="entropy = 0.0\nsamples = 1\nvalue = [1, 0, 0]"] ;
733 -> 734 ;
735 [label="X[3] <= 0.762\nentropy = 0.722\nsamples = 5\nvalue = [0, 4, 1]"] ;
733 -> 735 ;
736 [label="entropy = 0.0\nsamples = 4\nvalue = [0, 4, 0]"] ;
735 -> 736 ;
737 [label="entropy = 0.0\nsamples = 1\nvalue = [0, 0, 1]"] ;
735 -> 737 ;
738 [label="X[6] <= 0.211\nentropy = 1.182\nsamples = 34\nvalue = [23, 3, 8]"] ;
732 -> 738 ;
739 [label="X[4] <= 0.31\nentropy = 0.982\nsamples = 19\nvalue = [11, 0, 8]"] ;
738 -> 739 ;
740 [label="entropy = 0.0\nsamples = 2\nvalue = [0, 0, 2]"] ;
739 -> 740 ;
741 [label="X[6] <= 0.195\nentropy = 0.937\nsamples = 17\nvalue = [11, 0, 6]"] ;
739 -> 741 ;
742 [label="entropy = 0.0\nsamples = 5\nvalue = [5, 0, 0]"] ;
741 -> 742 ;
743 [label="X[1] <= 0.417\nentropy = 1.0\nsamples = 12\nvalue = [6, 0, 6]"] ;
741 -> 743 ;
744 [label="X[0] <= 0.512\nentropy = 0.918\nsamples = 9\nvalue = [6, 0, 3]"] ;
743 -> 744 ;
745 [label="X[3] <= 0.676\nentropy = 0.811\nsamples = 4\nvalue = [1, 0, 3]"] ;
744 -> 745 ;
746 [label="entropy = 0.0\nsamples = 1\nvalue = [1, 0, 0]"] ;
745 -> 746 ;
747 [label="entropy = 0.0\nsamples = 3\nvalue = [0, 0, 3]"] ;
745 -> 747 ;
748 [label="entropy = 0.0\nsamples = 5\nvalue = [5, 0, 0]"] ;
744 -> 748 ;
749 [label="entropy = 0.0\nsamples = 3\nvalue = [0, 0, 3]"] ;
743 -> 749 ;
750 [label="X[0] <= 0.545\nentropy = 0.722\nsamples = 15\nvalue = [12, 3, 0]"] ;
738 -> 750 ;
751 [label="X[3] <= 0.736\nentropy = 1.0\nsamples = 6\nvalue = [3, 3, 0]"] ;
750 -> 751 ;
752 [label="entropy = 0.0\nsamples = 2\nvalue = [2, 0, 0]"] ;
751 -> 752 ;
753 [label="X[3] <= 0.77\nentropy = 0.811\nsamples = 4\nvalue = [1, 3, 0]"] ;
751 -> 753 ;
754 [label="entropy = 0.0\nsamples = 3\nvalue = [0, 3, 0]"] ;
753 -> 754 ;
755 [label="entropy = 0.0\nsamples = 1\nvalue = [1, 0, 0]"] ;
753 -> 755 ;
756 [label="entropy = 0.0\nsamples = 9\nvalue = [9, 0, 0]"] ;
750 -> 756 ;
757 [label="X[0] <= 0.532\nentropy = 0.722\nsamples = 5\nvalue = [0, 4, 1]"] ;
731 -> 757 ;
758 [label="entropy = 0.0\nsamples = 1\nvalue = [0, 0, 1]"] ;
757 -> 758 ;
759 [label="entropy = 0.0\nsamples = 4\nvalue = [0, 4, 0]"] ;
757 -> 759 ;
760 [label="X[4] <= 0.431\nentropy = 1.283\nsamples = 152\nvalue = [74, 10, 68]"] ;
730 -> 760 ;
761 [label="X[4] <= 0.357\nentropy = 1.328\nsamples = 107\nvalue = [45, 9, 53]"] ;
760 -> 761 ;
762 [label="X[4] <= 0.345\nentropy = 0.989\nsamples = 32\nvalue = [18, 0, 14]"] ;
761 -> 762 ;
763 [label="X[6] <= 0.212\nentropy = 0.863\nsamples = 14\nvalue = [4, 0, 10]"] ;
762 -> 763 ;
764 [label="entropy = 0.0\nsamples = 7\nvalue = [0, 0, 7]"] ;
763 -> 764 ;
765 [label="X[3] <= 0.765\nentropy = 0.985\nsamples = 7\nvalue = [4, 0, 3]"] ;
763 -> 765 ;
766 [label="X[5] <= 0.136\nentropy = 0.811\nsamples = 4\nvalue = [1, 0, 3]"] ;
765 -> 766 ;
767 [label="entropy = 0.0\nsamples = 1\nvalue = [1, 0, 0]"] ;
766 -> 767 ;
768 [label="entropy = 0.0\nsamples = 3\nvalue = [0, 0, 3]"] ;
766 -> 768 ;
769 [label="entropy = 0.0\nsamples = 3\nvalue = [3, 0, 0]"] ;
765 -> 769 ;
770 [label="X[3] <= 0.73\nentropy = 0.764\nsamples = 18\nvalue = [14, 0, 4]"] ;
762 -> 770 ;
771 [label="X[5] <= 0.147\nentropy = 1.0\nsamples = 6\nvalue = [3, 0, 3]"] ;
770 -> 771 ;
772 [label="X[6] <= 0.189\nentropy = 0.811\nsamples = 4\nvalue = [3, 0, 1]"] ;
771 -> 772 ;
773 [label="entropy = 0.0\nsamples = 1\nvalue = [0, 0, 1]"] ;
772 -> 773 ;
774 [label="entropy = 0.0\nsamples = 3\nvalue = [3, 0, 0]"] ;
772 -> 774 ;
775 [label="entropy = 0.0\nsamples = 2\nvalue = [0, 0, 2]"] ;
771 -> 775 ;
776 [label="X[0] <= 0.577\nentropy = 0.414\nsamples = 12\nvalue = [11, 0, 1]"] ;
770 -> 776 ;
777 [label="entropy = 0.0\nsamples = 11\nvalue = [11, 0, 0]"] ;
776 -> 777 ;
778 [label="entropy = 0.0\nsamples = 1\nvalue = [0, 0, 1]"] ;
776 -> 778 ;
779 [label="X[4] <= 0.375\nentropy = 1.388\nsamples = 75\nvalue = [27, 9, 39]"] ;
761 -> 779 ;
780 [label="X[3] <= 0.784\nentropy = 1.295\nsamples = 20\nvalue = [2, 6, 12]"] ;
779 -> 780 ;
781 [label="X[6] <= 0.19\nentropy = 0.503\nsamples = 9\nvalue = [1, 0, 8]"] ;
780 -> 781 ;
782 [label="entropy = 0.0\nsamples = 1\nvalue = [1, 0, 0]"] ;
781 -> 782 ;
783 [label="entropy = 0.0\nsamples = 8\nvalue = [0, 0, 8]"] ;
781 -> 783 ;
784 [label="X[5] <= 0.198\nentropy = 1.322\nsamples = 11\nvalue = [1, 6, 4]"] ;
780 -> 784 ;
785 [label="X[7] <= 0.5\nentropy = 1.061\nsamples = 8\nvalue = [1, 6, 1]"] ;
784 -> 785 ;
786 [label="entropy = 0.0\nsamples = 5\nvalue = [0, 5, 0]"] ;
785 -> 786 ;
787 [label="X[1] <= 0.425\nentropy = 1.585\nsamples = 3\nvalue = [1, 1, 1]"] ;
785 -> 787 ;
788 [label="entropy = 0.0\nsamples = 1\nvalue = [0, 1, 0]"] ;
787 -> 788 ;
789 [label="X[3] <= 0.797\nentropy = 1.0\nsamples = 2\nvalue = [1, 0, 1]"] ;
787 -> 789 ;
790 [label="entropy = 0.0\nsamples = 1\nvalue = [0, 0, 1]"] ;
789 -> 790 ;
791 [label="entropy = 0.0\nsamples = 1\nvalue = [1, 0, 0]"] ;
789 -> 791 ;
792 [label="entropy = 0.0\nsamples = 3\nvalue = [0, 0, 3]"] ;
784 -> 792 ;
793 [label="X[4] <= 0.394\nentropy = 1.25\nsamples = 55\nvalue = [25, 3, 27]"] ;
779 -> 793 ;
794 [label="X[6] <= 0.201\nentropy = 1.19\nsamples = 19\nvalue = [13, 2, 4]"] ;
793 -> 794 ;
795 [label="X[6] <= 0.186\nentropy = 1.522\nsamples = 5\nvalue = [1, 2, 2]"] ;
794 -> 795 ;
796 [label="entropy = 0.0\nsamples = 1\nvalue = [1, 0, 0]"] ;
795 -> 796 ;
797 [label="X[5] <= 0.171\nentropy = 1.0\nsamples = 4\nvalue = [0, 2, 2]"] ;
795 -> 797 ;
798 [label="entropy = 0.0\nsamples = 1\nvalue = [0, 1, 0]"] ;
797 -> 798 ;
799 [label="X[5] <= 0.222\nentropy = 0.918\nsamples = 3\nvalue = [0, 1, 2]"] ;
797 -> 799 ;
800 [label="entropy = 0.0\nsamples = 2\nvalue = [0, 0, 2]"] ;
799 -> 800 ;
801 [label="entropy = 0.0\nsamples = 1\nvalue = [0, 1, 0]"] ;
799 -> 801 ;
802 [label="X[3] <= 0.821\nentropy = 0.592\nsamples = 14\nvalue = [12, 0, 2]"] ;
794 -> 802 ;
803 [label="entropy = 0.0\nsamples = 10\nvalue = [10, 0, 0]"] ;
802 -> 803 ;
804 [label="X[3] <= 0.863\nentropy = 1.0\nsamples = 4\nvalue = [2, 0, 2]"] ;
802 -> 804 ;
805 [label="entropy = 0.0\nsamples = 2\nvalue = [0, 0, 2]"] ;
804 -> 805 ;
806 [label="entropy = 0.0\nsamples = 2\nvalue = [2, 0, 0]"] ;
804 -> 806 ;
807 [label="X[2] <= 0.172\nentropy = 1.085\nsamples = 36\nvalue = [12, 1, 23]"] ;
793 -> 807 ;
808 [label="X[0] <= 0.59\nentropy = 0.928\nsamples = 35\nvalue = [12, 0, 23]"] ;
807 -> 808 ;
809 [label="X[5] <= 0.231\nentropy = 0.857\nsamples = 32\nvalue = [9, 0, 23]"] ;
808 -> 809 ;
810 [label="X[5] <= 0.193\nentropy = 0.784\nsamples = 30\nvalue = [7, 0, 23]"] ;
809 -> 810 ;
811 [label="X[6] <= 0.208\nentropy = 0.934\nsamples = 20\nvalue = [7, 0, 13]"] ;
810 -> 811 ;
812 [label="entropy = 0.0\nsamples = 6\nvalue = [0, 0, 6]"] ;
811 -> 812 ;
813 [label="X[6] <= 0.225\nentropy = 1.0\nsamples = 14\nvalue = [7, 0, 7]"] ;
811 -> 813 ;
814 [label="X[1] <= 0.375\nentropy = 0.592\nsamples = 7\nvalue = [6, 0, 1]"] ;
813 -> 814 ;
815 [label="entropy = 0.0\nsamples = 1\nvalue = [0, 0, 1]"] ;
814 -> 815 ;
816 [label="entropy = 0.0\nsamples = 6\nvalue = [6, 0, 0]"] ;
814 -> 816 ;
817 [label="X[2] <= 0.157\nentropy = 0.592\nsamples = 7\nvalue = [1, 0, 6]"] ;
813 -> 817 ;
818 [label="entropy = 0.0\nsamples = 6\nvalue = [0, 0, 6]"] ;
817 -> 818 ;
819 [label="entropy = 0.0\nsamples = 1\nvalue = [1, 0, 0]"] ;
817 -> 819 ;
820 [label="entropy = 0.0\nsamples = 10\nvalue = [0, 0, 10]"] ;
810 -> 820 ;
821 [label="entropy = 0.0\nsamples = 2\nvalue = [2, 0, 0]"] ;
809 -> 821 ;
822 [label="entropy = 0.0\nsamples = 3\nvalue = [3, 0, 0]"] ;
808 -> 822 ;
823 [label="entropy = 0.0\nsamples = 1\nvalue = [0, 1, 0]"] ;
807 -> 823 ;
824 [label="X[6] <= 0.214\nentropy = 1.059\nsamples = 45\nvalue = [29, 1, 15]"] ;
760 -> 824 ;
825 [label="X[0] <= 0.677\nentropy = 0.614\nsamples = 18\nvalue = [16, 1, 1]"] ;
824 -> 825 ;
826 [label="X[4] <= 0.435\nentropy = 0.323\nsamples = 17\nvalue = [16, 0, 1]"] ;
825 -> 826 ;
827 [label="X[1] <= 0.435\nentropy = 0.918\nsamples = 3\nvalue = [2, 0, 1]"] ;
826 -> 827 ;
828 [label="entropy = 0.0\nsamples = 2\nvalue = [2, 0, 0]"] ;
827 -> 828 ;
829 [label="entropy = 0.0\nsamples = 1\nvalue = [0, 0, 1]"] ;
827 -> 829 ;
830 [label="entropy = 0.0\nsamples = 14\nvalue = [14, 0, 0]"] ;
826 -> 830 ;
831 [label="entropy = 0.0\nsamples = 1\nvalue = [0, 1, 0]"] ;
825 -> 831 ;
832 [label="X[3] <= 0.874\nentropy = 0.999\nsamples = 27\nvalue = [13, 0, 14]"] ;
824 -> 832 ;
833 [label="entropy = 0.0\nsamples = 5\nvalue = [5, 0, 0]"] ;
832 -> 833 ;
834 [label="X[1] <= 0.438\nentropy = 0.946\nsamples = 22\nvalue = [8, 0, 14]"] ;
832 -> 834 ;
835 [label="entropy = 0.0\nsamples = 8\nvalue = [0, 0, 8]"] ;
834 -> 835 ;
836 [label="X[2] <= 0.142\nentropy = 0.985\nsamples = 14\nvalue = [8, 0, 6]"] ;
834 -> 836 ;
837 [label="entropy = 0.0\nsamples = 3\nvalue = [0, 0, 3]"] ;
836 -> 837 ;
838 [label="X[1] <= 0.453\nentropy = 0.845\nsamples = 11\nvalue = [8, 0, 3]"] ;
836 -> 838 ;
839 [label="X[1] <= 0.447\nentropy = 1.0\nsamples = 6\nvalue = [3, 0, 3]"] ;
838 -> 839 ;
840 [label="entropy = 0.0\nsamples = 2\nvalue = [2, 0, 0]"] ;
839 -> 840 ;
841 [label="X[5] <= 0.222\nentropy = 0.811\nsamples = 4\nvalue = [1, 0, 3]"] ;
839 -> 841 ;
842 [label="entropy = 0.0\nsamples = 3\nvalue = [0, 0, 3]"] ;
841 -> 842 ;
843 [label="entropy = 0.0\nsamples = 1\nvalue = [1, 0, 0]"] ;
841 -> 843 ;
844 [label="entropy = 0.0\nsamples = 5\nvalue = [5, 0, 0]"] ;
838 -> 844 ;
845 [label="X[4] <= 0.447\nentropy = 1.439\nsamples = 440\nvalue = [237, 125, 78]"] ;
729 -> 845 ;
846 [label="X[3] <= 0.833\nentropy = 1.442\nsamples = 273\nvalue = [129, 105, 39]"] ;
845 -> 846 ;
847 [label="X[4] <= 0.345\nentropy = 1.234\nsamples = 66\nvalue = [44, 14, 8]"] ;
846 -> 847 ;
848 [label="X[6] <= 0.247\nentropy = 1.43\nsamples = 34\nvalue = [19, 7, 8]"] ;
847 -> 848 ;
849 [label="X[4] <= 0.339\nentropy = 1.252\nsamples = 18\nvalue = [9, 1, 8]"] ;
848 -> 849 ;
850 [label="X[5] <= 0.181\nentropy = 0.89\nsamples = 13\nvalue = [9, 0, 4]"] ;
849 -> 850 ;
851 [label="X[2] <= 0.138\nentropy = 0.503\nsamples = 9\nvalue = [8, 0, 1]"] ;
850 -> 851 ;
852 [label="X[5] <= 0.16\nentropy = 1.0\nsamples = 2\nvalue = [1, 0, 1]"] ;
851 -> 852 ;
853 [label="entropy = 0.0\nsamples = 1\nvalue = [1, 0, 0]"] ;
852 -> 853 ;
854 [label="entropy = 0.0\nsamples = 1\nvalue = [0, 0, 1]"] ;
852 -> 854 ;
855 [label="entropy = 0.0\nsamples = 7\nvalue = [7, 0, 0]"] ;
851 -> 855 ;
856 [label="X[3] <= 0.783\nentropy = 0.811\nsamples = 4\nvalue = [1, 0, 3]"] ;
850 -> 856 ;
857 [label="entropy = 0.0\nsamples = 1\nvalue = [1, 0, 0]"] ;
856 -> 857 ;
858 [label="entropy = 0.0\nsamples = 3\nvalue = [0, 0, 3]"] ;
856 -> 858 ;
859 [label="X[1] <= 0.453\nentropy = 0.722\nsamples = 5\nvalue = [0, 1, 4]"] ;
849 -> 859 ;
860 [label="entropy = 0.0\nsamples = 4\nvalue = [0, 0, 4]"] ;
859 -> 860 ;
861 [label="entropy = 0.0\nsamples = 1\nvalue = [0, 1, 0]"] ;
859 -> 861 ;
862 [label="X[5] <= 0.179\nentropy = 0.954\nsamples = 16\nvalue = [10, 6, 0]"] ;
848 -> 862 ;
863 [label="X[4] <= 0.313\nentropy = 1.0\nsamples = 12\nvalue = [6, 6, 0]"] ;
862 -> 863 ;
864 [label="entropy = 0.0\nsamples = 2\nvalue = [0, 2, 0]"] ;
863 -> 864 ;
865 [label="X[3] <= 0.739\nentropy = 0.971\nsamples = 10\nvalue = [6, 4, 0]"] ;
863 -> 865 ;
866 [label="entropy = 0.0\nsamples = 2\nvalue = [0, 2, 0]"] ;
865 -> 866 ;
867 [label="X[2] <= 0.148\nentropy = 0.811\nsamples = 8\nvalue = [6, 2, 0]"] ;
865 -> 867 ;
868 [label="entropy = 0.0\nsamples = 5\nvalue = [5, 0, 0]"] ;
867 -> 868 ;
869 [label="X[3] <= 0.77\nentropy = 0.918\nsamples = 3\nvalue = [1, 2, 0]"] ;
867 -> 869 ;
870 [label="entropy = 0.0\nsamples = 1\nvalue = [1, 0, 0]"] ;
869 -> 870 ;
871 [label="entropy = 0.0\nsamples = 2\nvalue = [0, 2, 0]"] ;
869 -> 871 ;
872 [label="entropy = 0.0\nsamples = 4\nvalue = [4, 0, 0]"] ;
862 -> 872 ;
873 [label="X[2] <= 0.148\nentropy = 0.758\nsamples = 32\nvalue = [25, 7, 0]"] ;
847 -> 873 ;
874 [label="X[1] <= 0.428\nentropy = 0.469\nsamples = 20\nvalue = [18, 2, 0]"] ;
873 -> 874 ;
875 [label="X[3] <= 0.828\nentropy = 0.863\nsamples = 7\nvalue = [5, 2, 0]"] ;
874 -> 875 ;
876 [label="X[6] <= 0.236\nentropy = 0.65\nsamples = 6\nvalue = [5, 1, 0]"] ;
875 -> 876 ;
877 [label="entropy = 0.0\nsamples = 1\nvalue = [0, 1, 0]"] ;
876 -> 877 ;
878 [label="entropy = 0.0\nsamples = 5\nvalue = [5, 0, 0]"] ;
876 -> 878 ;
879 [label="entropy = 0.0\nsamples = 1\nvalue = [0, 1, 0]"] ;
875 -> 879 ;
880 [label="entropy = 0.0\nsamples = 13\nvalue = [13, 0, 0]"] ;
874 -> 880 ;
881 [label="X[3] <= 0.822\nentropy = 0.98\nsamples = 12\nvalue = [7, 5, 0]"] ;
873 -> 881 ;
882 [label="X[3] <= 0.809\nentropy = 0.991\nsamples = 9\nvalue = [4, 5, 0]"] ;
881 -> 882 ;
883 [label="X[6] <= 0.246\nentropy = 0.918\nsamples = 6\nvalue = [4, 2, 0]"] ;
882 -> 883 ;
884 [label="X[5] <= 0.174\nentropy = 0.918\nsamples = 3\nvalue = [1, 2, 0]"] ;
883 -> 884 ;
885 [label="entropy = 0.0\nsamples = 2\nvalue = [0, 2, 0]"] ;
884 -> 885 ;
886 [label="entropy = 0.0\nsamples = 1\nvalue = [1, 0, 0]"] ;
884 -> 886 ;
887 [label="entropy = 0.0\nsamples = 3\nvalue = [3, 0, 0]"] ;
883 -> 887 ;
888 [label="entropy = 0.0\nsamples = 3\nvalue = [0, 3, 0]"] ;
882 -> 888 ;
889 [label="entropy = 0.0\nsamples = 3\nvalue = [3, 0, 0]"] ;
881 -> 889 ;
890 [label="X[4] <= 0.43\nentropy = 1.459\nsamples = 207\nvalue = [85, 91, 31]"] ;
846 -> 890 ;
891 [label="X[3] <= 0.954\nentropy = 1.48\nsamples = 167\nvalue = [59, 79, 29]"] ;
890 -> 891 ;
892 [label="X[4] <= 0.398\nentropy = 1.517\nsamples = 143\nvalue = [56, 59, 28]"] ;
891 -> 892 ;
893 [label="X[5] <= 0.242\nentropy = 1.411\nsamples = 106\nvalue = [43, 50, 13]"] ;
892 -> 893 ;
894 [label="X[4] <= 0.348\nentropy = 1.413\nsamples = 99\nvalue = [36, 50, 13]"] ;
893 -> 894 ;
895 [label="X[5] <= 0.211\nentropy = 0.881\nsamples = 20\nvalue = [6, 14, 0]"] ;
894 -> 895 ;
896 [label="X[5] <= 0.192\nentropy = 0.985\nsamples = 14\nvalue = [6, 8, 0]"] ;
895 -> 896 ;
897 [label="X[5] <= 0.172\nentropy = 0.544\nsamples = 8\nvalue = [1, 7, 0]"] ;
896 -> 897 ;
898 [label="X[4] <= 0.347\nentropy = 1.0\nsamples = 2\nvalue = [1, 1, 0]"] ;
897 -> 898 ;
899 [label="entropy = 0.0\nsamples = 1\nvalue = [1, 0, 0]"] ;
898 -> 899 ;
900 [label="entropy = 0.0\nsamples = 1\nvalue = [0, 1, 0]"] ;
898 -> 900 ;
901 [label="entropy = 0.0\nsamples = 6\nvalue = [0, 6, 0]"] ;
897 -> 901 ;
902 [label="X[0] <= 0.538\nentropy = 0.65\nsamples = 6\nvalue = [5, 1, 0]"] ;
896 -> 902 ;
903 [label="entropy = 0.0\nsamples = 1\nvalue = [0, 1, 0]"] ;
902 -> 903 ;
904 [label="entropy = 0.0\nsamples = 5\nvalue = [5, 0, 0]"] ;
902 -> 904 ;
905 [label="entropy = 0.0\nsamples = 6\nvalue = [0, 6, 0]"] ;
895 -> 905 ;
906 [label="X[4] <= 0.353\nentropy = 1.476\nsamples = 79\nvalue = [30, 36, 13]"] ;
894 -> 906 ;
907 [label="X[4] <= 0.351\nentropy = 0.971\nsamples = 5\nvalue = [0, 2, 3]"] ;
906 -> 907 ;
908 [label="X[1] <= 0.39\nentropy = 0.918\nsamples = 3\nvalue = [0, 2, 1]"] ;
907 -> 908 ;
909 [label="entropy = 0.0\nsamples = 1\nvalue = [0, 0, 1]"] ;
908 -> 909 ;
910 [label="entropy = 0.0\nsamples = 2\nvalue = [0, 2, 0]"] ;
908 -> 910 ;
911 [label="entropy = 0.0\nsamples = 2\nvalue = [0, 0, 2]"] ;
907 -> 911 ;
912 [label="X[2] <= 0.148\nentropy = 1.434\nsamples = 74\nvalue = [30, 34, 10]"] ;
906 -> 912 ;
913 [label="X[6] <= 0.279\nentropy = 1.163\nsamples = 33\nvalue = [17, 15, 1]"] ;
912 -> 913 ;
914 [label="X[5] <= 0.206\nentropy = 1.15\nsamples = 29\nvalue = [17, 11, 1]"] ;
913 -> 914 ;
915 [label="X[0] <= 0.553\nentropy = 1.219\nsamples = 20\nvalue = [8, 11, 1]"] ;
914 -> 915 ;
916 [label="entropy = 0.0\nsamples = 5\nvalue = [0, 5, 0]"] ;
915 -> 916 ;
917 [label="X[0] <= 0.603\nentropy = 1.273\nsamples = 15\nvalue = [8, 6, 1]"] ;
915 -> 917 ;
918 [label="X[3] <= 0.898\nentropy = 0.961\nsamples = 13\nvalue = [8, 5, 0]"] ;
917 -> 918 ;
919 [label="X[2] <= 0.138\nentropy = 0.845\nsamples = 11\nvalue = [8, 3, 0]"] ;
918 -> 919 ;
920 [label="X[8] <= 0.5\nentropy = 1.0\nsamples = 6\nvalue = [3, 3, 0]"] ;
919 -> 920 ;
921 [label="X[1] <= 0.46\nentropy = 0.811\nsamples = 4\nvalue = [3, 1, 0]"] ;
920 -> 921 ;
922 [label="entropy = 0.0\nsamples = 3\nvalue = [3, 0, 0]"] ;
921 -> 922 ;
923 [label="entropy = 0.0\nsamples = 1\nvalue = [0, 1, 0]"] ;
921 -> 923 ;
924 [label="entropy = 0.0\nsamples = 2\nvalue = [0, 2, 0]"] ;
920 -> 924 ;
925 [label="entropy = 0.0\nsamples = 5\nvalue = [5, 0, 0]"] ;
919 -> 925 ;
926 [label="entropy = 0.0\nsamples = 2\nvalue = [0, 2, 0]"] ;
918 -> 926 ;
927 [label="X[3] <= 0.878\nentropy = 1.0\nsamples = 2\nvalue = [0, 1, 1]"] ;
917 -> 927 ;
928 [label="entropy = 0.0\nsamples = 1\nvalue = [0, 1, 0]"] ;
927 -> 928 ;
929 [label="entropy = 0.0\nsamples = 1\nvalue = [0, 0, 1]"] ;
927 -> 929 ;
930 [label="entropy = 0.0\nsamples = 9\nvalue = [9, 0, 0]"] ;
914 -> 930 ;
931 [label="entropy = 0.0\nsamples = 4\nvalue = [0, 4, 0]"] ;
913 -> 931 ;
932 [label="X[6] <= 0.27\nentropy = 1.52\nsamples = 41\nvalue = [13, 19, 9]"] ;
912 -> 932 ;
933 [label="X[3] <= 0.842\nentropy = 1.338\nsamples = 28\nvalue = [4, 17, 7]"] ;
932 -> 933 ;
934 [label="X[0] <= 0.568\nentropy = 0.811\nsamples = 4\nvalue = [3, 0, 1]"] ;
933 -> 934 ;
935 [label="entropy = 0.0\nsamples = 3\nvalue = [3, 0, 0]"] ;
934 -> 935 ;
936 [label="entropy = 0.0\nsamples = 1\nvalue = [0, 0, 1]"] ;
934 -> 936 ;
937 [label="X[4] <= 0.362\nentropy = 1.043\nsamples = 24\nvalue = [1, 17, 6]"] ;
933 -> 937 ;
938 [label="X[3] <= 0.887\nentropy = 0.722\nsamples = 5\nvalue = [1, 4, 0]"] ;
937 -> 938 ;
939 [label="entropy = 0.0\nsamples = 1\nvalue = [1, 0, 0]"] ;
938 -> 939 ;
940 [label="entropy = 0.0\nsamples = 4\nvalue = [0, 4, 0]"] ;
938 -> 940 ;
941 [label="X[8] <= 0.5\nentropy = 0.9\nsamples = 19\nvalue = [0, 13, 6]"] ;
937 -> 941 ;
942 [label="X[6] <= 0.254\nentropy = 0.996\nsamples = 13\nvalue = [0, 7, 6]"] ;
941 -> 942 ;
943 [label="X[1] <= 0.433\nentropy = 0.65\nsamples = 6\nvalue = [0, 1, 5]"] ;
942 -> 943 ;
944 [label="entropy = 0.0\nsamples = 1\nvalue = [0, 1, 0]"] ;
943 -> 944 ;
945 [label="entropy = 0.0\nsamples = 5\nvalue = [0, 0, 5]"] ;
943 -> 945 ;
946 [label="X[5] <= 0.182\nentropy = 0.592\nsamples = 7\nvalue = [0, 6, 1]"] ;
942 -> 946 ;
947 [label="X[0] <= 0.56\nentropy = 1.0\nsamples = 2\nvalue = [0, 1, 1]"] ;
946 -> 947 ;
948 [label="entropy = 0.0\nsamples = 1\nvalue = [0, 1, 0]"] ;
947 -> 948 ;
949 [label="entropy = 0.0\nsamples = 1\nvalue = [0, 0, 1]"] ;
947 -> 949 ;
950 [label="entropy = 0.0\nsamples = 5\nvalue = [0, 5, 0]"] ;
946 -> 950 ;
951 [label="entropy = 0.0\nsamples = 6\nvalue = [0, 6, 0]"] ;
941 -> 951 ;
952 [label="X[4] <= 0.373\nentropy = 1.198\nsamples = 13\nvalue = [9, 2, 2]"] ;
932 -> 952 ;
953 [label="X[4] <= 0.365\nentropy = 0.918\nsamples = 6\nvalue = [4, 0, 2]"] ;
952 -> 953 ;
954 [label="entropy = 0.0\nsamples = 3\nvalue = [3, 0, 0]"] ;
953 -> 954 ;
955 [label="X[5] <= 0.183\nentropy = 0.918\nsamples = 3\nvalue = [1, 0, 2]"] ;
953 -> 955 ;
956 [label="entropy = 0.0\nsamples = 1\nvalue = [1, 0, 0]"] ;
955 -> 956 ;
957 [label="entropy = 0.0\nsamples = 2\nvalue = [0, 0, 2]"] ;
955 -> 957 ;
958 [label="X[4] <= 0.376\nentropy = 0.863\nsamples = 7\nvalue = [5, 2, 0]"] ;
952 -> 958 ;
959 [label="entropy = 0.0\nsamples = 2\nvalue = [0, 2, 0]"] ;
958 -> 959 ;
960 [label="entropy = 0.0\nsamples = 5\nvalue = [5, 0, 0]"] ;
958 -> 960 ;
961 [label="entropy = 0.0\nsamples = 7\nvalue = [7, 0, 0]"] ;
893 -> 961 ;
962 [label="X[3] <= 0.934\nentropy = 1.554\nsamples = 37\nvalue = [13, 9, 15]"] ;
892 -> 962 ;
963 [label="X[5] <= 0.205\nentropy = 1.429\nsamples = 30\nvalue = [12, 4, 14]"] ;
962 -> 963 ;
964 [label="X[2] <= 0.133\nentropy = 1.406\nsamples = 24\nvalue = [12, 3, 9]"] ;
963 -> 964 ;
965 [label="X[5] <= 0.177\nentropy = 1.0\nsamples = 4\nvalue = [0, 2, 2]"] ;
964 -> 965 ;
966 [label="entropy = 0.0\nsamples = 2\nvalue = [0, 0, 2]"] ;
965 -> 966 ;
967 [label="entropy = 0.0\nsamples = 2\nvalue = [0, 2, 0]"] ;
965 -> 967 ;
968 [label="X[5] <= 0.182\nentropy = 1.188\nsamples = 20\nvalue = [12, 1, 7]"] ;
964 -> 968 ;
969 [label="X[6] <= 0.249\nentropy = 1.322\nsamples = 11\nvalue = [4, 1, 6]"] ;
968 -> 969 ;
970 [label="X[0] <= 0.57\nentropy = 0.811\nsamples = 4\nvalue = [0, 1, 3]"] ;
969 -> 970 ;
971 [label="entropy = 0.0\nsamples = 1\nvalue = [0, 1, 0]"] ;
970 -> 971 ;
972 [label="entropy = 0.0\nsamples = 3\nvalue = [0, 0, 3]"] ;
970 -> 972 ;
973 [label="X[1] <= 0.45\nentropy = 0.985\nsamples = 7\nvalue = [4, 0, 3]"] ;
969 -> 973 ;
974 [label="X[3] <= 0.873\nentropy = 0.971\nsamples = 5\nvalue = [2, 0, 3]"] ;
973 -> 974 ;
975 [label="X[8] <= 0.5\nentropy = 0.918\nsamples = 3\nvalue = [2, 0, 1]"] ;
974 -> 975 ;
976 [label="entropy = 0.0\nsamples = 2\nvalue = [2, 0, 0]"] ;
975 -> 976 ;
977 [label="entropy = 0.0\nsamples = 1\nvalue = [0, 0, 1]"] ;
975 -> 977 ;
978 [label="entropy = 0.0\nsamples = 2\nvalue = [0, 0, 2]"] ;
974 -> 978 ;
979 [label="entropy = 0.0\nsamples = 2\nvalue = [2, 0, 0]"] ;
973 -> 979 ;
980 [label="X[0] <= 0.5\nentropy = 0.503\nsamples = 9\nvalue = [8, 0, 1]"] ;
968 -> 980 ;
981 [label="entropy = 0.0\nsamples = 1\nvalue = [0, 0, 1]"] ;
980 -> 981 ;
982 [label="entropy = 0.0\nsamples = 8\nvalue = [8, 0, 0]"] ;
980 -> 982 ;
983 [label="X[3] <= 0.915\nentropy = 0.65\nsamples = 6\nvalue = [0, 1, 5]"] ;
963 -> 983 ;
984 [label="entropy = 0.0\nsamples = 1\nvalue = [0, 1, 0]"] ;
983 -> 984 ;
985 [label="entropy = 0.0\nsamples = 5\nvalue = [0, 0, 5]"] ;
983 -> 985 ;
986 [label="X[6] <= 0.259\nentropy = 1.149\nsamples = 7\nvalue = [1, 5, 1]"] ;
962 -> 986 ;
987 [label="X[1] <= 0.457\nentropy = 1.0\nsamples = 2\nvalue = [1, 0, 1]"] ;
986 -> 987 ;
988 [label="entropy = 0.0\nsamples = 1\nvalue = [0, 0, 1]"] ;
987 -> 988 ;
989 [label="entropy = 0.0\nsamples = 1\nvalue = [1, 0, 0]"] ;
987 -> 989 ;
990 [label="entropy = 0.0\nsamples = 5\nvalue = [0, 5, 0]"] ;
986 -> 990 ;
991 [label="X[4] <= 0.406\nentropy = 0.785\nsamples = 24\nvalue = [3, 20, 1]"] ;
891 -> 991 ;
992 [label="entropy = 0.0\nsamples = 15\nvalue = [0, 15, 0]"] ;
991 -> 992 ;
993 [label="X[1] <= 0.453\nentropy = 1.352\nsamples = 9\nvalue = [3, 5, 1]"] ;
991 -> 993 ;
994 [label="X[4] <= 0.428\nentropy = 0.811\nsamples = 4\nvalue = [3, 1, 0]"] ;
993 -> 994 ;
995 [label="entropy = 0.0\nsamples = 3\nvalue = [3, 0, 0]"] ;
994 -> 995 ;
996 [label="entropy = 0.0\nsamples = 1\nvalue = [0, 1, 0]"] ;
994 -> 996 ;
997 [label="X[4] <= 0.411\nentropy = 0.722\nsamples = 5\nvalue = [0, 4, 1]"] ;
993 -> 997 ;
998 [label="entropy = 0.0\nsamples = 1\nvalue = [0, 0, 1]"] ;
997 -> 998 ;
999 [label="entropy = 0.0\nsamples = 4\nvalue = [0, 4, 0]"] ;
997 -> 999 ;
1000 [label="X[4] <= 0.44\nentropy = 1.141\nsamples = 40\nvalue = [26, 12, 2]"] ;
890 -> 1000 ;
1001 [label="X[4] <= 0.432\nentropy = 0.764\nsamples = 25\nvalue = [21, 3, 1]"] ;
1000 -> 1001 ;
1002 [label="X[5] <= 0.208\nentropy = 0.954\nsamples = 8\nvalue = [5, 3, 0]"] ;
1001 -> 1002 ;
1003 [label="entropy = 0.0\nsamples = 3\nvalue = [0, 3, 0]"] ;
1002 -> 1003 ;
1004 [label="entropy = 0.0\nsamples = 5\nvalue = [5, 0, 0]"] ;
1002 -> 1004 ;
1005 [label="X[2] <= 0.153\nentropy = 0.323\nsamples = 17\nvalue = [16, 0, 1]"] ;
1001 -> 1005 ;
1006 [label="entropy = 0.0\nsamples = 13\nvalue = [13, 0, 0]"] ;
1005 -> 1006 ;
1007 [label="X[0] <= 0.593\nentropy = 0.811\nsamples = 4\nvalue = [3, 0, 1]"] ;
1005 -> 1007 ;
1008 [label="entropy = 0.0\nsamples = 3\nvalue = [3, 0, 0]"] ;
1007 -> 1008 ;
1009 [label="entropy = 0.0\nsamples = 1\nvalue = [0, 0, 1]"] ;
1007 -> 1009 ;
1010 [label="X[8] <= 0.5\nentropy = 1.231\nsamples = 15\nvalue = [5, 9, 1]"] ;
1000 -> 1010 ;
1011 [label="X[1] <= 0.458\nentropy = 0.65\nsamples = 6\nvalue = [0, 5, 1]"] ;
1010 -> 1011 ;
1012 [label="X[1] <= 0.448\nentropy = 1.0\nsamples = 2\nvalue = [0, 1, 1]"] ;
1011 -> 1012 ;
1013 [label="entropy = 0.0\nsamples = 1\nvalue = [0, 1, 0]"] ;
1012 -> 1013 ;
1014 [label="entropy = 0.0\nsamples = 1\nvalue = [0, 0, 1]"] ;
1012 -> 1014 ;
1015 [label="entropy = 0.0\nsamples = 4\nvalue = [0, 4, 0]"] ;
1011 -> 1015 ;
1016 [label="X[6] <= 0.273\nentropy = 0.991\nsamples = 9\nvalue = [5, 4, 0]"] ;
1010 -> 1016 ;
1017 [label="entropy = 0.0\nsamples = 4\nvalue = [4, 0, 0]"] ;
1016 -> 1017 ;
1018 [label="X[5] <= 0.236\nentropy = 0.722\nsamples = 5\nvalue = [1, 4, 0]"] ;
1016 -> 1018 ;
1019 [label="entropy = 0.0\nsamples = 4\nvalue = [0, 4, 0]"] ;
1018 -> 1019 ;
1020 [label="entropy = 0.0\nsamples = 1\nvalue = [1, 0, 0]"] ;
1018 -> 1020 ;
1021 [label="X[5] <= 0.314\nentropy = 1.263\nsamples = 167\nvalue = [108, 20, 39]"] ;
845 -> 1021 ;
1022 [label="X[4] <= 0.478\nentropy = 1.22\nsamples = 162\nvalue = [107, 16, 39]"] ;
1021 -> 1022 ;
1023 [label="X[0] <= 0.608\nentropy = 1.485\nsamples = 51\nvalue = [26, 11, 14]"] ;
1022 -> 1023 ;
1024 [label="X[4] <= 0.453\nentropy = 1.546\nsamples = 39\nvalue = [16, 9, 14]"] ;
1023 -> 1024 ;
1025 [label="X[1] <= 0.433\nentropy = 0.764\nsamples = 9\nvalue = [7, 0, 2]"] ;
1024 -> 1025 ;
1026 [label="X[5] <= 0.218\nentropy = 0.918\nsamples = 3\nvalue = [1, 0, 2]"] ;
1025 -> 1026 ;
1027 [label="entropy = 0.0\nsamples = 2\nvalue = [0, 0, 2]"] ;
1026 -> 1027 ;
1028 [label="entropy = 0.0\nsamples = 1\nvalue = [1, 0, 0]"] ;
1026 -> 1028 ;
1029 [label="entropy = 0.0\nsamples = 6\nvalue = [6, 0, 0]"] ;
1025 -> 1029 ;
1030 [label="X[0] <= 0.555\nentropy = 1.571\nsamples = 30\nvalue = [9, 9, 12]"] ;
1024 -> 1030 ;
1031 [label="entropy = 0.0\nsamples = 4\nvalue = [0, 0, 4]"] ;
1030 -> 1031 ;
1032 [label="X[5] <= 0.212\nentropy = 1.583\nsamples = 26\nvalue = [9, 9, 8]"] ;
1030 -> 1032 ;
1033 [label="X[5] <= 0.169\nentropy = 1.295\nsamples = 10\nvalue = [6, 3, 1]"] ;
1032 -> 1033 ;
1034 [label="entropy = 0.0\nsamples = 1\nvalue = [0, 0, 1]"] ;
1033 -> 1034 ;
1035 [label="X[4] <= 0.455\nentropy = 0.918\nsamples = 9\nvalue = [6, 3, 0]"] ;
1033 -> 1035 ;
1036 [label="entropy = 0.0\nsamples = 2\nvalue = [0, 2, 0]"] ;
1035 -> 1036 ;
1037 [label="X[2] <= 0.138\nentropy = 0.592\nsamples = 7\nvalue = [6, 1, 0]"] ;
1035 -> 1037 ;
1038 [label="entropy = 0.0\nsamples = 1\nvalue = [0, 1, 0]"] ;
1037 -> 1038 ;
1039 [label="entropy = 0.0\nsamples = 6\nvalue = [6, 0, 0]"] ;
1037 -> 1039 ;
1040 [label="X[2] <= 0.168\nentropy = 1.505\nsamples = 16\nvalue = [3, 6, 7]"] ;
1032 -> 1040 ;
1041 [label="X[0] <= 0.572\nentropy = 1.296\nsamples = 14\nvalue = [1, 6, 7]"] ;
1040 -> 1041 ;
1042 [label="X[1] <= 0.447\nentropy = 0.918\nsamples = 3\nvalue = [1, 2, 0]"] ;
1041 -> 1042 ;
1043 [label="entropy = 0.0\nsamples = 2\nvalue = [0, 2, 0]"] ;
1042 -> 1043 ;
1044 [label="entropy = 0.0\nsamples = 1\nvalue = [1, 0, 0]"] ;
1042 -> 1044 ;
1045 [label="X[8] <= 0.5\nentropy = 0.946\nsamples = 11\nvalue = [0, 4, 7]"] ;
1041 -> 1045 ;
1046 [label="entropy = 0.0\nsamples = 4\nvalue = [0, 0, 4]"] ;
1045 -> 1046 ;
1047 [label="X[6] <= 0.278\nentropy = 0.985\nsamples = 7\nvalue = [0, 4, 3]"] ;
1045 -> 1047 ;
1048 [label="X[5] <= 0.227\nentropy = 0.971\nsamples = 5\nvalue = [0, 2, 3]"] ;
1047 -> 1048 ;
1049 [label="X[1] <= 0.463\nentropy = 0.918\nsamples = 3\nvalue = [0, 2, 1]"] ;
1048 -> 1049 ;
1050 [label="entropy = 0.0\nsamples = 1\nvalue = [0, 0, 1]"] ;
1049 -> 1050 ;
1051 [label="entropy = 0.0\nsamples = 2\nvalue = [0, 2, 0]"] ;
1049 -> 1051 ;
1052 [label="entropy = 0.0\nsamples = 2\nvalue = [0, 0, 2]"] ;
1048 -> 1052 ;
1053 [label="entropy = 0.0\nsamples = 2\nvalue = [0, 2, 0]"] ;
1047 -> 1053 ;
1054 [label="entropy = 0.0\nsamples = 2\nvalue = [2, 0, 0]"] ;
1040 -> 1054 ;
1055 [label="X[4] <= 0.464\nentropy = 0.65\nsamples = 12\nvalue = [10, 2, 0]"] ;
1023 -> 1055 ;
1056 [label="entropy = 0.0\nsamples = 8\nvalue = [8, 0, 0]"] ;
1055 -> 1056 ;
1057 [label="X[1] <= 0.472\nentropy = 1.0\nsamples = 4\nvalue = [2, 2, 0]"] ;
1055 -> 1057 ;
1058 [label="entropy = 0.0\nsamples = 2\nvalue = [2, 0, 0]"] ;
1057 -> 1058 ;
1059 [label="entropy = 0.0\nsamples = 2\nvalue = [0, 2, 0]"] ;
1057 -> 1059 ;
1060 [label="X[4] <= 0.69\nentropy = 1.018\nsamples = 111\nvalue = [81, 5, 25]"] ;
1022 -> 1060 ;
1061 [label="X[5] <= 0.198\nentropy = 0.984\nsamples = 108\nvalue = [81, 5, 22]"] ;
1060 -> 1061 ;
1062 [label="entropy = 0.0\nsamples = 16\nvalue = [16, 0, 0]"] ;
1061 -> 1062 ;
1063 [label="X[4] <= 0.604\nentropy = 1.076\nsamples = 92\nvalue = [65, 5, 22]"] ;
1061 -> 1063 ;
1064 [label="X[6] <= 0.256\nentropy = 1.118\nsamples = 79\nvalue = [53, 4, 22]"] ;
1063 -> 1064 ;
1065 [label="X[6] <= 0.238\nentropy = 1.33\nsamples = 24\nvalue = [11, 2, 11]"] ;
1064 -> 1065 ;
1066 [label="entropy = 0.0\nsamples = 5\nvalue = [5, 0, 0]"] ;
1065 -> 1066 ;
1067 [label="X[3] <= 1.02\nentropy = 1.324\nsamples = 19\nvalue = [6, 2, 11]"] ;
1065 -> 1067 ;
1068 [label="X[6] <= 0.25\nentropy = 0.592\nsamples = 7\nvalue = [0, 1, 6]"] ;
1067 -> 1068 ;
1069 [label="entropy = 0.0\nsamples = 4\nvalue = [0, 0, 4]"] ;
1068 -> 1069 ;
1070 [label="X[3] <= 1.007\nentropy = 0.918\nsamples = 3\nvalue = [0, 1, 2]"] ;
1068 -> 1070 ;
1071 [label="entropy = 0.0\nsamples = 1\nvalue = [0, 1, 0]"] ;
1070 -> 1071 ;
1072 [label="entropy = 0.0\nsamples = 2\nvalue = [0, 0, 2]"] ;
1070 -> 1072 ;
1073 [label="X[3] <= 1.05\nentropy = 1.325\nsamples = 12\nvalue = [6, 1, 5]"] ;
1067 -> 1073 ;
1074 [label="entropy = 0.0\nsamples = 4\nvalue = [4, 0, 0]"] ;
1073 -> 1074 ;
1075 [label="X[4] <= 0.582\nentropy = 1.299\nsamples = 8\nvalue = [2, 1, 5]"] ;
1073 -> 1075 ;
1076 [label="X[4] <= 0.508\nentropy = 0.65\nsamples = 6\nvalue = [1, 0, 5]"] ;
1075 -> 1076 ;
1077 [label="entropy = 0.0\nsamples = 1\nvalue = [1, 0, 0]"] ;
1076 -> 1077 ;
1078 [label="entropy = 0.0\nsamples = 5\nvalue = [0, 0, 5]"] ;
1076 -> 1078 ;
1079 [label="X[4] <= 0.588\nentropy = 1.0\nsamples = 2\nvalue = [1, 1, 0]"] ;
1075 -> 1079 ;
1080 [label="entropy = 0.0\nsamples = 1\nvalue = [0, 1, 0]"] ;
1079 -> 1080 ;
1081 [label="entropy = 0.0\nsamples = 1\nvalue = [1, 0, 0]"] ;
1079 -> 1081 ;
1082 [label="X[3] <= 1.064\nentropy = 0.935\nsamples = 55\nvalue = [42, 2, 11]"] ;
1064 -> 1082 ;
1083 [label="entropy = 0.0\nsamples = 13\nvalue = [13, 0, 0]"] ;
1082 -> 1083 ;
1084 [label="X[5] <= 0.246\nentropy = 1.084\nsamples = 42\nvalue = [29, 2, 11]"] ;
1082 -> 1084 ;
1085 [label="X[2] <= 0.153\nentropy = 1.252\nsamples = 18\nvalue = [9, 1, 8]"] ;
1084 -> 1085 ;
1086 [label="X[4] <= 0.557\nentropy = 0.65\nsamples = 6\nvalue = [5, 0, 1]"] ;
1085 -> 1086 ;
1087 [label="entropy = 0.0\nsamples = 5\nvalue = [5, 0, 0]"] ;
1086 -> 1087 ;
1088 [label="entropy = 0.0\nsamples = 1\nvalue = [0, 0, 1]"] ;
1086 -> 1088 ;
1089 [label="X[4] <= 0.551\nentropy = 1.281\nsamples = 12\nvalue = [4, 1, 7]"] ;
1085 -> 1089 ;
1090 [label="X[4] <= 0.519\nentropy = 0.722\nsamples = 5\nvalue = [0, 1, 4]"] ;
1089 -> 1090 ;
1091 [label="entropy = 0.0\nsamples = 3\nvalue = [0, 0, 3]"] ;
1090 -> 1091 ;
1092 [label="X[0] <= 0.6\nentropy = 1.0\nsamples = 2\nvalue = [0, 1, 1]"] ;
1090 -> 1092 ;
1093 [label="entropy = 0.0\nsamples = 1\nvalue = [0, 0, 1]"] ;
1092 -> 1093 ;
1094 [label="entropy = 0.0\nsamples = 1\nvalue = [0, 1, 0]"] ;
1092 -> 1094 ;
1095 [label="X[0] <= 0.608\nentropy = 0.985\nsamples = 7\nvalue = [4, 0, 3]"] ;
1089 -> 1095 ;
1096 [label="entropy = 0.0\nsamples = 4\nvalue = [4, 0, 0]"] ;
1095 -> 1096 ;
1097 [label="entropy = 0.0\nsamples = 3\nvalue = [0, 0, 3]"] ;
1095 -> 1097 ;
1098 [label="X[3] <= 1.148\nentropy = 0.785\nsamples = 24\nvalue = [20, 1, 3]"] ;
1084 -> 1098 ;
1099 [label="X[3] <= 1.131\nentropy = 0.31\nsamples = 18\nvalue = [17, 1, 0]"] ;
1098 -> 1099 ;
1100 [label="entropy = 0.0\nsamples = 15\nvalue = [15, 0, 0]"] ;
1099 -> 1100 ;
1101 [label="X[1] <= 0.48\nentropy = 0.918\nsamples = 3\nvalue = [2, 1, 0]"] ;
1099 -> 1101 ;
1102 [label="entropy = 0.0\nsamples = 1\nvalue = [0, 1, 0]"] ;
1101 -> 1102 ;
1103 [label="entropy = 0.0\nsamples = 2\nvalue = [2, 0, 0]"] ;
1101 -> 1103 ;
1104 [label="X[4] <= 0.536\nentropy = 1.0\nsamples = 6\nvalue = [3, 0, 3]"] ;
1098 -> 1104 ;
1105 [label="entropy = 0.0\nsamples = 2\nvalue = [2, 0, 0]"] ;
1104 -> 1105 ;
1106 [label="X[6] <= 0.264\nentropy = 0.811\nsamples = 4\nvalue = [1, 0, 3]"] ;
1104 -> 1106 ;
1107 [label="entropy = 0.0\nsamples = 1\nvalue = [1, 0, 0]"] ;
1106 -> 1107 ;
1108 [label="entropy = 0.0\nsamples = 3\nvalue = [0, 0, 3]"] ;
1106 -> 1108 ;
1109 [label="X[5] <= 0.292\nentropy = 0.391\nsamples = 13\nvalue = [12, 1, 0]"] ;
1063 -> 1109 ;
1110 [label="entropy = 0.0\nsamples = 12\nvalue = [12, 0, 0]"] ;
1109 -> 1110 ;
1111 [label="entropy = 0.0\nsamples = 1\nvalue = [0, 1, 0]"] ;
1109 -> 1111 ;
1112 [label="entropy = 0.0\nsamples = 3\nvalue = [0, 0, 3]"] ;
1060 -> 1112 ;
1113 [label="X[3] <= 1.163\nentropy = 0.722\nsamples = 5\nvalue = [1, 4, 0]"] ;
1021 -> 1113 ;
1114 [label="entropy = 0.0\nsamples = 1\nvalue = [1, 0, 0]"] ;
1113 -> 1114 ;
1115 [label="entropy = 0.0\nsamples = 4\nvalue = [0, 4, 0]"] ;
1113 -> 1115 ;
1116 [label="X[6] <= 0.44\nentropy = 1.104\nsamples = 1126\nvalue = [376, 714, 36]"] ;
538 -> 1116 ;
1117 [label="X[4] <= 0.439\nentropy = 1.191\nsamples = 838\nvalue = [330, 472, 36]"] ;
1116 -> 1117 ;
1118 [label="X[0] <= 0.498\nentropy = 0.847\nsamples = 204\nvalue = [40, 160, 4]"] ;
1117 -> 1118 ;
1119 [label="X[3] <= 0.839\nentropy = 0.918\nsamples = 3\nvalue = [1, 0, 2]"] ;
1118 -> 1119 ;
1120 [label="entropy = 0.0\nsamples = 2\nvalue = [0, 0, 2]"] ;
1119 -> 1120 ;
1121 [label="entropy = 0.0\nsamples = 1\nvalue = [1, 0, 0]"] ;
1119 -> 1121 ;
1122 [label="X[6] <= 0.339\nentropy = 0.787\nsamples = 201\nvalue = [39, 160, 2]"] ;
1118 -> 1122 ;
1123 [label="X[5] <= 0.17\nentropy = 0.917\nsamples = 116\nvalue = [32, 83, 1]"] ;
1122 -> 1123 ;
1124 [label="entropy = 0.0\nsamples = 19\nvalue = [0, 19, 0]"] ;
1123 -> 1124 ;
1125 [label="X[3] <= 1.032\nentropy = 0.992\nsamples = 97\nvalue = [32, 64, 1]"] ;
1123 -> 1125 ;
1126 [label="X[1] <= 0.458\nentropy = 1.083\nsamples = 68\nvalue = [29, 38, 1]"] ;
1125 -> 1126 ;
1127 [label="X[3] <= 1.003\nentropy = 0.821\nsamples = 39\nvalue = [10, 29, 0]"] ;
1126 -> 1127 ;
1128 [label="X[3] <= 0.905\nentropy = 0.753\nsamples = 37\nvalue = [8, 29, 0]"] ;
1127 -> 1128 ;
1129 [label="X[5] <= 0.197\nentropy = 0.985\nsamples = 14\nvalue = [6, 8, 0]"] ;
1128 -> 1129 ;
1130 [label="X[5] <= 0.181\nentropy = 0.845\nsamples = 11\nvalue = [3, 8, 0]"] ;
1129 -> 1130 ;
1131 [label="X[4] <= 0.19\nentropy = 0.971\nsamples = 5\nvalue = [3, 2, 0]"] ;
1130 -> 1131 ;
1132 [label="entropy = 0.0\nsamples = 1\nvalue = [0, 1, 0]"] ;
1131 -> 1132 ;
1133 [label="X[6] <= 0.328\nentropy = 0.811\nsamples = 4\nvalue = [3, 1, 0]"] ;
1131 -> 1133 ;
1134 [label="entropy = 0.0\nsamples = 3\nvalue = [3, 0, 0]"] ;
1133 -> 1134 ;
1135 [label="entropy = 0.0\nsamples = 1\nvalue = [0, 1, 0]"] ;
1133 -> 1135 ;
1136 [label="entropy = 0.0\nsamples = 6\nvalue = [0, 6, 0]"] ;
1130 -> 1136 ;
1137 [label="entropy = 0.0\nsamples = 3\nvalue = [3, 0, 0]"] ;
1129 -> 1137 ;
1138 [label="X[4] <= 0.358\nentropy = 0.426\nsamples = 23\nvalue = [2, 21, 0]"] ;
1128 -> 1138 ;
1139 [label="entropy = 0.0\nsamples = 15\nvalue = [0, 15, 0]"] ;
1138 -> 1139 ;
1140 [label="X[6] <= 0.308\nentropy = 0.811\nsamples = 8\nvalue = [2, 6, 0]"] ;
1138 -> 1140 ;
1141 [label="entropy = 0.0\nsamples = 4\nvalue = [0, 4, 0]"] ;
1140 -> 1141 ;
1142 [label="X[0] <= 0.55\nentropy = 1.0\nsamples = 4\nvalue = [2, 2, 0]"] ;
1140 -> 1142 ;
1143 [label="entropy = 0.0\nsamples = 2\nvalue = [0, 2, 0]"] ;
1142 -> 1143 ;
1144 [label="entropy = 0.0\nsamples = 2\nvalue = [2, 0, 0]"] ;
1142 -> 1144 ;
1145 [label="entropy = 0.0\nsamples = 2\nvalue = [2, 0, 0]"] ;
1127 -> 1145 ;
1146 [label="X[6] <= 0.296\nentropy = 1.091\nsamples = 29\nvalue = [19, 9, 1]"] ;
1126 -> 1146 ;
1147 [label="entropy = 0.0\nsamples = 3\nvalue = [0, 3, 0]"] ;
1146 -> 1147 ;
1148 [label="X[0] <= 0.603\nentropy = 1.0\nsamples = 26\nvalue = [19, 6, 1]"] ;
1146 -> 1148 ;
1149 [label="X[4] <= 0.425\nentropy = 0.391\nsamples = 13\nvalue = [12, 0, 1]"] ;
1148 -> 1149 ;
1150 [label="entropy = 0.0\nsamples = 10\nvalue = [10, 0, 0]"] ;
1149 -> 1150 ;
1151 [label="X[3] <= 1.002\nentropy = 0.918\nsamples = 3\nvalue = [2, 0, 1]"] ;
1149 -> 1151 ;
1152 [label="entropy = 0.0\nsamples = 1\nvalue = [0, 0, 1]"] ;
1151 -> 1152 ;
1153 [label="entropy = 0.0\nsamples = 2\nvalue = [2, 0, 0]"] ;
1151 -> 1153 ;
1154 [label="X[2] <= 0.168\nentropy = 0.996\nsamples = 13\nvalue = [7, 6, 0]"] ;
1148 -> 1154 ;
1155 [label="X[3] <= 1.005\nentropy = 0.971\nsamples = 10\nvalue = [4, 6, 0]"] ;
1154 -> 1155 ;
1156 [label="X[3] <= 0.956\nentropy = 0.722\nsamples = 5\nvalue = [4, 1, 0]"] ;
1155 -> 1156 ;
1157 [label="entropy = 0.0\nsamples = 1\nvalue = [0, 1, 0]"] ;
1156 -> 1157 ;
1158 [label="entropy = 0.0\nsamples = 4\nvalue = [4, 0, 0]"] ;
1156 -> 1158 ;
1159 [label="entropy = 0.0\nsamples = 5\nvalue = [0, 5, 0]"] ;
1155 -> 1159 ;
1160 [label="entropy = 0.0\nsamples = 3\nvalue = [3, 0, 0]"] ;
1154 -> 1160 ;
1161 [label="X[1] <= 0.458\nentropy = 0.48\nsamples = 29\nvalue = [3, 26, 0]"] ;
1125 -> 1161 ;
1162 [label="X[0] <= 0.593\nentropy = 0.811\nsamples = 12\nvalue = [3, 9, 0]"] ;
1161 -> 1162 ;
1163 [label="entropy = 0.0\nsamples = 9\nvalue = [0, 9, 0]"] ;
1162 -> 1163 ;
1164 [label="entropy = 0.0\nsamples = 3\nvalue = [3, 0, 0]"] ;
1162 -> 1164 ;
1165 [label="entropy = 0.0\nsamples = 17\nvalue = [0, 17, 0]"] ;
1161 -> 1165 ;
1166 [label="X[0] <= 0.637\nentropy = 0.501\nsamples = 85\nvalue = [7, 77, 1]"] ;
1122 -> 1166 ;
1167 [label="X[2] <= 0.168\nentropy = 0.417\nsamples = 83\nvalue = [7, 76, 0]"] ;
1166 -> 1167 ;
1168 [label="X[5] <= 0.265\nentropy = 0.639\nsamples = 37\nvalue = [6, 31, 0]"] ;
1167 -> 1168 ;
1169 [label="X[2] <= 0.157\nentropy = 0.513\nsamples = 35\nvalue = [4, 31, 0]"] ;
1168 -> 1169 ;
1170 [label="entropy = 0.0\nsamples = 20\nvalue = [0, 20, 0]"] ;
1169 -> 1170 ;
1171 [label="X[4] <= 0.329\nentropy = 0.837\nsamples = 15\nvalue = [4, 11, 0]"] ;
1169 -> 1171 ;
1172 [label="entropy = 0.0\nsamples = 5\nvalue = [0, 5, 0]"] ;
1171 -> 1172 ;
1173 [label="X[4] <= 0.387\nentropy = 0.971\nsamples = 10\nvalue = [4, 6, 0]"] ;
1171 -> 1173 ;
1174 [label="entropy = 0.0\nsamples = 3\nvalue = [3, 0, 0]"] ;
1173 -> 1174 ;
1175 [label="X[4] <= 0.429\nentropy = 0.592\nsamples = 7\nvalue = [1, 6, 0]"] ;
1173 -> 1175 ;
1176 [label="entropy = 0.0\nsamples = 6\nvalue = [0, 6, 0]"] ;
1175 -> 1176 ;
1177 [label="entropy = 0.0\nsamples = 1\nvalue = [1, 0, 0]"] ;
1175 -> 1177 ;
1178 [label="entropy = 0.0\nsamples = 2\nvalue = [2, 0, 0]"] ;
1168 -> 1178 ;
1179 [label="X[4] <= 0.422\nentropy = 0.151\nsamples = 46\nvalue = [1, 45, 0]"] ;
1167 -> 1179 ;
1180 [label="entropy = 0.0\nsamples = 39\nvalue = [0, 39, 0]"] ;
1179 -> 1180 ;
1181 [label="X[1] <= 0.468\nentropy = 0.592\nsamples = 7\nvalue = [1, 6, 0]"] ;
1179 -> 1181 ;
1182 [label="entropy = 0.0\nsamples = 1\nvalue = [1, 0, 0]"] ;
1181 -> 1182 ;
1183 [label="entropy = 0.0\nsamples = 6\nvalue = [0, 6, 0]"] ;
1181 -> 1183 ;
1184 [label="X[6] <= 0.365\nentropy = 1.0\nsamples = 2\nvalue = [0, 1, 1]"] ;
1166 -> 1184 ;
